digraph Tree {
node [shape=box, style="filled, rounded", color="black", fontname="helvetica"] ;
edge [fontname="helvetica"] ;
0 [label=<health &le; 0.5<br/>entropy = 1.714<br/>samples = 11663<br/>value = [3888, 3834, 1, 3649, 291]<br/>class = priority>, fillcolor="#fffefe"] ;
1 [label=<entropy = 0.0<br/>samples = 3888<br/>value = [3888, 0, 0, 0, 0]<br/>class = priority>, fillcolor="#e58139"] ;
0 -> 1 [labeldistance=2.5, labelangle=45, headlabel="True"] ;
2 [label=<has_nurs &le; 3.5<br/>entropy = 1.194<br/>samples = 7775<br/>value = [0, 3834, 1, 3649, 291]<br/>class = not_recom>, fillcolor="#f9fef6"] ;
0 -> 2 [labeldistance=2.5, labelangle=-45, headlabel="False"] ;
3 [label=<has_nurs &le; 1.5<br/>entropy = 1.19<br/>samples = 6192<br/>value = [0, 3642, 1, 2258, 291]<br/>class = not_recom>, fillcolor="#d1f6b9"] ;
2 -> 3 ;
4 [label=<parents &le; 1.5<br/>entropy = 1.088<br/>samples = 3107<br/>value = [0, 1237, 0, 1813, 57]<br/>class = very_recom>, fillcolor="#c3c2f7"] ;
3 -> 4 ;
5 [label=<health &le; 1.5<br/>entropy = 0.78<br/>samples = 2063<br/>value = [0, 477, 0, 1586, 0]<br/>class = very_recom>, fillcolor="#7775ed"] ;
4 -> 5 ;
6 [label=<has_nurs &le; 0.5<br/>entropy = 0.432<br/>samples = 1027<br/>value = [0, 91, 0, 936, 0]<br/>class = very_recom>, fillcolor="#4f4ce8"] ;
5 -> 6 ;
7 [label=<children &le; 0.5<br/>entropy = 0.079<br/>samples = 513<br/>value = [0, 5, 0, 508, 0]<br/>class = very_recom>, fillcolor="#3e3be5"] ;
6 -> 7 ;
8 [label=<form &le; 0.5<br/>entropy = 0.234<br/>samples = 131<br/>value = [0, 5, 0, 126, 0]<br/>class = very_recom>, fillcolor="#4441e6"] ;
7 -> 8 ;
9 [label=<housing &le; 0.5<br/>entropy = 0.625<br/>samples = 32<br/>value = [0, 5, 0, 27, 0]<br/>class = very_recom>, fillcolor="#605eea"] ;
8 -> 9 ;
10 [label=<finance &le; 0.5<br/>entropy = 0.994<br/>samples = 11<br/>value = [0, 5, 0, 6, 0]<br/>class = very_recom>, fillcolor="#dedefb"] ;
9 -> 10 ;
11 [label=<entropy = 0.0<br/>samples = 5<br/>value = [0, 5, 0, 0, 0]<br/>class = not_recom>, fillcolor="#7be539"] ;
10 -> 11 ;
12 [label=<entropy = 0.0<br/>samples = 6<br/>value = [0, 0, 0, 6, 0]<br/>class = very_recom>, fillcolor="#3c39e5"] ;
10 -> 12 ;
13 [label=<entropy = 0.0<br/>samples = 21<br/>value = [0, 0, 0, 21, 0]<br/>class = very_recom>, fillcolor="#3c39e5"] ;
9 -> 13 ;
14 [label=<entropy = 0.0<br/>samples = 99<br/>value = [0, 0, 0, 99, 0]<br/>class = very_recom>, fillcolor="#3c39e5"] ;
8 -> 14 ;
15 [label=<entropy = 0.0<br/>samples = 382<br/>value = [0, 0, 0, 382, 0]<br/>class = very_recom>, fillcolor="#3c39e5"] ;
7 -> 15 ;
16 [label=<parents &le; 0.5<br/>entropy = 0.652<br/>samples = 514<br/>value = [0, 86, 0, 428, 0]<br/>class = very_recom>, fillcolor="#6361ea"] ;
6 -> 16 ;
17 [label=<children &le; 0.5<br/>entropy = 0.091<br/>samples = 261<br/>value = [0, 3, 0, 258, 0]<br/>class = very_recom>, fillcolor="#3e3be5"] ;
16 -> 17 ;
18 [label=<form &le; 0.5<br/>entropy = 0.28<br/>samples = 62<br/>value = [0, 3, 0, 59, 0]<br/>class = very_recom>, fillcolor="#4643e6"] ;
17 -> 18 ;
19 [label=<housing &le; 0.5<br/>entropy = 0.696<br/>samples = 16<br/>value = [0, 3, 0, 13, 0]<br/>class = very_recom>, fillcolor="#6967eb"] ;
18 -> 19 ;
20 [label=<finance &le; 0.5<br/>entropy = 1.0<br/>samples = 6<br/>value = [0, 3, 0, 3, 0]<br/>class = not_recom>, fillcolor="#ffffff"] ;
19 -> 20 ;
21 [label=<entropy = 0.0<br/>samples = 3<br/>value = [0, 3, 0, 0, 0]<br/>class = not_recom>, fillcolor="#7be539"] ;
20 -> 21 ;
22 [label=<entropy = 0.0<br/>samples = 3<br/>value = [0, 0, 0, 3, 0]<br/>class = very_recom>, fillcolor="#3c39e5"] ;
20 -> 22 ;
23 [label=<entropy = 0.0<br/>samples = 10<br/>value = [0, 0, 0, 10, 0]<br/>class = very_recom>, fillcolor="#3c39e5"] ;
19 -> 23 ;
24 [label=<entropy = 0.0<br/>samples = 46<br/>value = [0, 0, 0, 46, 0]<br/>class = very_recom>, fillcolor="#3c39e5"] ;
18 -> 24 ;
25 [label=<entropy = 0.0<br/>samples = 199<br/>value = [0, 0, 0, 199, 0]<br/>class = very_recom>, fillcolor="#3c39e5"] ;
17 -> 25 ;
26 [label=<housing &le; 0.5<br/>entropy = 0.913<br/>samples = 253<br/>value = [0, 83, 0, 170, 0]<br/>class = very_recom>, fillcolor="#9b9af2"] ;
16 -> 26 ;
27 [label=<finance &le; 0.5<br/>entropy = 0.938<br/>samples = 79<br/>value = [0, 51, 0, 28, 0]<br/>class = not_recom>, fillcolor="#c3f3a6"] ;
26 -> 27 ;
28 [label=<entropy = 0.0<br/>samples = 40<br/>value = [0, 40, 0, 0, 0]<br/>class = not_recom>, fillcolor="#7be539"] ;
27 -> 28 ;
29 [label=<children &le; 1.5<br/>entropy = 0.858<br/>samples = 39<br/>value = [0, 11, 0, 28, 0]<br/>class = very_recom>, fillcolor="#8987ef"] ;
27 -> 29 ;
30 [label=<form &le; 1.5<br/>entropy = 0.964<br/>samples = 18<br/>value = [0, 11, 0, 7, 0]<br/>class = not_recom>, fillcolor="#cff6b7"] ;
29 -> 30 ;
31 [label=<entropy = 0.0<br/>samples = 8<br/>value = [0, 8, 0, 0, 0]<br/>class = not_recom>, fillcolor="#7be539"] ;
30 -> 31 ;
32 [label=<form &le; 2.5<br/>entropy = 0.881<br/>samples = 10<br/>value = [0, 3, 0, 7, 0]<br/>class = very_recom>, fillcolor="#908ef0"] ;
30 -> 32 ;
33 [label=<entropy = 0.0<br/>samples = 5<br/>value = [0, 0, 0, 5, 0]<br/>class = very_recom>, fillcolor="#3c39e5"] ;
32 -> 33 ;
34 [label=<children &le; 0.5<br/>entropy = 0.971<br/>samples = 5<br/>value = [0, 3, 0, 2, 0]<br/>class = not_recom>, fillcolor="#d3f6bd"] ;
32 -> 34 ;
35 [label=<entropy = 0.0<br/>samples = 3<br/>value = [0, 3, 0, 0, 0]<br/>class = not_recom>, fillcolor="#7be539"] ;
34 -> 35 ;
36 [label=<entropy = 0.0<br/>samples = 2<br/>value = [0, 0, 0, 2, 0]<br/>class = very_recom>, fillcolor="#3c39e5"] ;
34 -> 36 ;
37 [label=<entropy = 0.0<br/>samples = 21<br/>value = [0, 0, 0, 21, 0]<br/>class = very_recom>, fillcolor="#3c39e5"] ;
29 -> 37 ;
38 [label=<children &le; 1.5<br/>entropy = 0.689<br/>samples = 174<br/>value = [0, 32, 0, 142, 0]<br/>class = very_recom>, fillcolor="#6866eb"] ;
26 -> 38 ;
39 [label=<form &le; 1.5<br/>entropy = 0.949<br/>samples = 87<br/>value = [0, 32, 0, 55, 0]<br/>class = very_recom>, fillcolor="#adacf4"] ;
38 -> 39 ;
40 [label=<housing &le; 1.5<br/>entropy = 0.968<br/>samples = 43<br/>value = [0, 26, 0, 17, 0]<br/>class = not_recom>, fillcolor="#d1f6ba"] ;
39 -> 40 ;
41 [label=<children &le; 0.5<br/>entropy = 0.828<br/>samples = 23<br/>value = [0, 6, 0, 17, 0]<br/>class = very_recom>, fillcolor="#817fee"] ;
40 -> 41 ;
42 [label=<form &le; 0.5<br/>entropy = 0.994<br/>samples = 11<br/>value = [0, 6, 0, 5, 0]<br/>class = not_recom>, fillcolor="#e9fbde"] ;
41 -> 42 ;
43 [label=<entropy = 0.0<br/>samples = 6<br/>value = [0, 6, 0, 0, 0]<br/>class = not_recom>, fillcolor="#7be539"] ;
42 -> 43 ;
44 [label=<entropy = 0.0<br/>samples = 5<br/>value = [0, 0, 0, 5, 0]<br/>class = very_recom>, fillcolor="#3c39e5"] ;
42 -> 44 ;
45 [label=<entropy = 0.0<br/>samples = 12<br/>value = [0, 0, 0, 12, 0]<br/>class = very_recom>, fillcolor="#3c39e5"] ;
41 -> 45 ;
46 [label=<entropy = 0.0<br/>samples = 20<br/>value = [0, 20, 0, 0, 0]<br/>class = not_recom>, fillcolor="#7be539"] ;
40 -> 46 ;
47 [label=<form &le; 2.5<br/>entropy = 0.575<br/>samples = 44<br/>value = [0, 6, 0, 38, 0]<br/>class = very_recom>, fillcolor="#5b58e9"] ;
39 -> 47 ;
48 [label=<entropy = 0.0<br/>samples = 21<br/>value = [0, 0, 0, 21, 0]<br/>class = very_recom>, fillcolor="#3c39e5"] ;
47 -> 48 ;
49 [label=<children &le; 0.5<br/>entropy = 0.828<br/>samples = 23<br/>value = [0, 6, 0, 17, 0]<br/>class = very_recom>, fillcolor="#817fee"] ;
47 -> 49 ;
50 [label=<housing &le; 1.5<br/>entropy = 1.0<br/>samples = 12<br/>value = [0, 6, 0, 6, 0]<br/>class = not_recom>, fillcolor="#ffffff"] ;
49 -> 50 ;
51 [label=<entropy = 0.0<br/>samples = 6<br/>value = [0, 0, 0, 6, 0]<br/>class = very_recom>, fillcolor="#3c39e5"] ;
50 -> 51 ;
52 [label=<entropy = 0.0<br/>samples = 6<br/>value = [0, 6, 0, 0, 0]<br/>class = not_recom>, fillcolor="#7be539"] ;
50 -> 52 ;
53 [label=<entropy = 0.0<br/>samples = 11<br/>value = [0, 0, 0, 11, 0]<br/>class = very_recom>, fillcolor="#3c39e5"] ;
49 -> 53 ;
54 [label=<entropy = 0.0<br/>samples = 87<br/>value = [0, 0, 0, 87, 0]<br/>class = very_recom>, fillcolor="#3c39e5"] ;
38 -> 54 ;
55 [label=<parents &le; 0.5<br/>entropy = 0.953<br/>samples = 1036<br/>value = [0, 386, 0, 650, 0]<br/>class = very_recom>, fillcolor="#b0aff4"] ;
5 -> 55 ;
56 [label=<housing &le; 0.5<br/>entropy = 0.78<br/>samples = 523<br/>value = [0, 121, 0, 402, 0]<br/>class = very_recom>, fillcolor="#7775ed"] ;
55 -> 56 ;
57 [label=<finance &le; 0.5<br/>entropy = 0.991<br/>samples = 178<br/>value = [0, 79, 0, 99, 0]<br/>class = very_recom>, fillcolor="#d8d7fa"] ;
56 -> 57 ;
58 [label=<social &le; 1.5<br/>entropy = 0.903<br/>samples = 91<br/>value = [0, 62, 0, 29, 0]<br/>class = not_recom>, fillcolor="#b9f196"] ;
57 -> 58 ;
59 [label=<social &le; 0.5<br/>entropy = 0.999<br/>samples = 60<br/>value = [0, 31, 0, 29, 0]<br/>class = not_recom>, fillcolor="#f6fdf2"] ;
58 -> 59 ;
60 [label=<entropy = 0.0<br/>samples = 29<br/>value = [0, 29, 0, 0, 0]<br/>class = not_recom>, fillcolor="#7be539"] ;
59 -> 60 ;
61 [label=<children &le; 0.5<br/>entropy = 0.345<br/>samples = 31<br/>value = [0, 2, 0, 29, 0]<br/>class = very_recom>, fillcolor="#4947e7"] ;
59 -> 61 ;
62 [label=<form &le; 0.5<br/>entropy = 0.863<br/>samples = 7<br/>value = [0, 2, 0, 5, 0]<br/>class = very_recom>, fillcolor="#8a88ef"] ;
61 -> 62 ;
63 [label=<entropy = 0.0<br/>samples = 2<br/>value = [0, 2, 0, 0, 0]<br/>class = not_recom>, fillcolor="#7be539"] ;
62 -> 63 ;
64 [label=<entropy = 0.0<br/>samples = 5<br/>value = [0, 0, 0, 5, 0]<br/>class = very_recom>, fillcolor="#3c39e5"] ;
62 -> 64 ;
65 [label=<entropy = 0.0<br/>samples = 24<br/>value = [0, 0, 0, 24, 0]<br/>class = very_recom>, fillcolor="#3c39e5"] ;
61 -> 65 ;
66 [label=<entropy = 0.0<br/>samples = 31<br/>value = [0, 31, 0, 0, 0]<br/>class = not_recom>, fillcolor="#7be539"] ;
58 -> 66 ;
67 [label=<children &le; 1.5<br/>entropy = 0.713<br/>samples = 87<br/>value = [0, 17, 0, 70, 0]<br/>class = very_recom>, fillcolor="#6b69eb"] ;
57 -> 67 ;
68 [label=<form &le; 1.5<br/>entropy = 0.974<br/>samples = 42<br/>value = [0, 17, 0, 25, 0]<br/>class = very_recom>, fillcolor="#c1c0f7"] ;
67 -> 68 ;
69 [label=<social &le; 1.5<br/>entropy = 0.959<br/>samples = 21<br/>value = [0, 13, 0, 8, 0]<br/>class = not_recom>, fillcolor="#ccf5b3"] ;
68 -> 69 ;
70 [label=<social &le; 0.5<br/>entropy = 0.961<br/>samples = 13<br/>value = [0, 5, 0, 8, 0]<br/>class = very_recom>, fillcolor="#b6b5f5"] ;
69 -> 70 ;
71 [label=<entropy = 0.0<br/>samples = 5<br/>value = [0, 5, 0, 0, 0]<br/>class = not_recom>, fillcolor="#7be539"] ;
70 -> 71 ;
72 [label=<entropy = 0.0<br/>samples = 8<br/>value = [0, 0, 0, 8, 0]<br/>class = very_recom>, fillcolor="#3c39e5"] ;
70 -> 72 ;
73 [label=<entropy = 0.0<br/>samples = 8<br/>value = [0, 8, 0, 0, 0]<br/>class = not_recom>, fillcolor="#7be539"] ;
69 -> 73 ;
74 [label=<form &le; 2.5<br/>entropy = 0.702<br/>samples = 21<br/>value = [0, 4, 0, 17, 0]<br/>class = very_recom>, fillcolor="#6a68eb"] ;
68 -> 74 ;
75 [label=<entropy = 0.0<br/>samples = 10<br/>value = [0, 0, 0, 10, 0]<br/>class = very_recom>, fillcolor="#3c39e5"] ;
74 -> 75 ;
76 [label=<children &le; 0.5<br/>entropy = 0.946<br/>samples = 11<br/>value = [0, 4, 0, 7, 0]<br/>class = very_recom>, fillcolor="#abaaf4"] ;
74 -> 76 ;
77 [label=<social &le; 0.5<br/>entropy = 0.918<br/>samples = 6<br/>value = [0, 4, 0, 2, 0]<br/>class = not_recom>, fillcolor="#bdf29c"] ;
76 -> 77 ;
78 [label=<entropy = 0.0<br/>samples = 2<br/>value = [0, 2, 0, 0, 0]<br/>class = not_recom>, fillcolor="#7be539"] ;
77 -> 78 ;
79 [label=<social &le; 1.5<br/>entropy = 1.0<br/>samples = 4<br/>value = [0, 2, 0, 2, 0]<br/>class = not_recom>, fillcolor="#ffffff"] ;
77 -> 79 ;
80 [label=<entropy = 0.0<br/>samples = 2<br/>value = [0, 0, 0, 2, 0]<br/>class = very_recom>, fillcolor="#3c39e5"] ;
79 -> 80 ;
81 [label=<entropy = 0.0<br/>samples = 2<br/>value = [0, 2, 0, 0, 0]<br/>class = not_recom>, fillcolor="#7be539"] ;
79 -> 81 ;
82 [label=<entropy = 0.0<br/>samples = 5<br/>value = [0, 0, 0, 5, 0]<br/>class = very_recom>, fillcolor="#3c39e5"] ;
76 -> 82 ;
83 [label=<entropy = 0.0<br/>samples = 45<br/>value = [0, 0, 0, 45, 0]<br/>class = very_recom>, fillcolor="#3c39e5"] ;
67 -> 83 ;
84 [label=<children &le; 1.5<br/>entropy = 0.534<br/>samples = 345<br/>value = [0, 42, 0, 303, 0]<br/>class = very_recom>, fillcolor="#5754e9"] ;
56 -> 84 ;
85 [label=<housing &le; 1.5<br/>entropy = 0.809<br/>samples = 169<br/>value = [0, 42, 0, 127, 0]<br/>class = very_recom>, fillcolor="#7c7aee"] ;
84 -> 85 ;
86 [label=<form &le; 0.5<br/>entropy = 0.381<br/>samples = 81<br/>value = [0, 6, 0, 75, 0]<br/>class = very_recom>, fillcolor="#4c49e7"] ;
85 -> 86 ;
87 [label=<children &le; 0.5<br/>entropy = 0.881<br/>samples = 20<br/>value = [0, 6, 0, 14, 0]<br/>class = very_recom>, fillcolor="#908ef0"] ;
86 -> 87 ;
88 [label=<social &le; 0.5<br/>entropy = 0.918<br/>samples = 9<br/>value = [0, 6, 0, 3, 0]<br/>class = not_recom>, fillcolor="#bdf29c"] ;
87 -> 88 ;
89 [label=<entropy = 0.0<br/>samples = 3<br/>value = [0, 3, 0, 0, 0]<br/>class = not_recom>, fillcolor="#7be539"] ;
88 -> 89 ;
90 [label=<social &le; 1.5<br/>entropy = 1.0<br/>samples = 6<br/>value = [0, 3, 0, 3, 0]<br/>class = not_recom>, fillcolor="#ffffff"] ;
88 -> 90 ;
91 [label=<entropy = 0.0<br/>samples = 3<br/>value = [0, 0, 0, 3, 0]<br/>class = very_recom>, fillcolor="#3c39e5"] ;
90 -> 91 ;
92 [label=<entropy = 0.0<br/>samples = 3<br/>value = [0, 3, 0, 0, 0]<br/>class = not_recom>, fillcolor="#7be539"] ;
90 -> 92 ;
93 [label=<entropy = 0.0<br/>samples = 11<br/>value = [0, 0, 0, 11, 0]<br/>class = very_recom>, fillcolor="#3c39e5"] ;
87 -> 93 ;
94 [label=<entropy = 0.0<br/>samples = 61<br/>value = [0, 0, 0, 61, 0]<br/>class = very_recom>, fillcolor="#3c39e5"] ;
86 -> 94 ;
95 [label=<form &le; 1.5<br/>entropy = 0.976<br/>samples = 88<br/>value = [0, 36, 0, 52, 0]<br/>class = very_recom>, fillcolor="#c3c2f7"] ;
85 -> 95 ;
96 [label=<social &le; 0.5<br/>entropy = 0.901<br/>samples = 41<br/>value = [0, 28, 0, 13, 0]<br/>class = not_recom>, fillcolor="#b8f195"] ;
95 -> 96 ;
97 [label=<entropy = 0.0<br/>samples = 14<br/>value = [0, 14, 0, 0, 0]<br/>class = not_recom>, fillcolor="#7be539"] ;
96 -> 97 ;
98 [label=<social &le; 1.5<br/>entropy = 0.999<br/>samples = 27<br/>value = [0, 14, 0, 13, 0]<br/>class = not_recom>, fillcolor="#f6fdf1"] ;
96 -> 98 ;
99 [label=<entropy = 0.0<br/>samples = 13<br/>value = [0, 0, 0, 13, 0]<br/>class = very_recom>, fillcolor="#3c39e5"] ;
98 -> 99 ;
100 [label=<entropy = 0.0<br/>samples = 14<br/>value = [0, 14, 0, 0, 0]<br/>class = not_recom>, fillcolor="#7be539"] ;
98 -> 100 ;
101 [label=<form &le; 2.5<br/>entropy = 0.658<br/>samples = 47<br/>value = [0, 8, 0, 39, 0]<br/>class = very_recom>, fillcolor="#6462ea"] ;
95 -> 101 ;
102 [label=<entropy = 0.0<br/>samples = 24<br/>value = [0, 0, 0, 24, 0]<br/>class = very_recom>, fillcolor="#3c39e5"] ;
101 -> 102 ;
103 [label=<children &le; 0.5<br/>entropy = 0.932<br/>samples = 23<br/>value = [0, 8, 0, 15, 0]<br/>class = very_recom>, fillcolor="#a4a3f3"] ;
101 -> 103 ;
104 [label=<social &le; 0.5<br/>entropy = 0.918<br/>samples = 12<br/>value = [0, 8, 0, 4, 0]<br/>class = not_recom>, fillcolor="#bdf29c"] ;
103 -> 104 ;
105 [label=<entropy = 0.0<br/>samples = 4<br/>value = [0, 4, 0, 0, 0]<br/>class = not_recom>, fillcolor="#7be539"] ;
104 -> 105 ;
106 [label=<social &le; 1.5<br/>entropy = 1.0<br/>samples = 8<br/>value = [0, 4, 0, 4, 0]<br/>class = not_recom>, fillcolor="#ffffff"] ;
104 -> 106 ;
107 [label=<entropy = 0.0<br/>samples = 4<br/>value = [0, 0, 0, 4, 0]<br/>class = very_recom>, fillcolor="#3c39e5"] ;
106 -> 107 ;
108 [label=<entropy = 0.0<br/>samples = 4<br/>value = [0, 4, 0, 0, 0]<br/>class = not_recom>, fillcolor="#7be539"] ;
106 -> 108 ;
109 [label=<entropy = 0.0<br/>samples = 11<br/>value = [0, 0, 0, 11, 0]<br/>class = very_recom>, fillcolor="#3c39e5"] ;
103 -> 109 ;
110 [label=<entropy = 0.0<br/>samples = 176<br/>value = [0, 0, 0, 176, 0]<br/>class = very_recom>, fillcolor="#3c39e5"] ;
84 -> 110 ;
111 [label=<has_nurs &le; 0.5<br/>entropy = 0.999<br/>samples = 513<br/>value = [0, 265, 0, 248, 0]<br/>class = not_recom>, fillcolor="#f7fdf2"] ;
55 -> 111 ;
112 [label=<housing &le; 0.5<br/>entropy = 0.797<br/>samples = 253<br/>value = [0, 61, 0, 192, 0]<br/>class = very_recom>, fillcolor="#7a78ed"] ;
111 -> 112 ;
113 [label=<finance &le; 0.5<br/>entropy = 0.995<br/>samples = 83<br/>value = [0, 38, 0, 45, 0]<br/>class = very_recom>, fillcolor="#e1e0fb"] ;
112 -> 113 ;
114 [label=<social &le; 1.5<br/>entropy = 0.902<br/>samples = 44<br/>value = [0, 30, 0, 14, 0]<br/>class = not_recom>, fillcolor="#b9f195"] ;
113 -> 114 ;
115 [label=<social &le; 0.5<br/>entropy = 0.999<br/>samples = 29<br/>value = [0, 15, 0, 14, 0]<br/>class = not_recom>, fillcolor="#f6fdf2"] ;
114 -> 115 ;
116 [label=<entropy = 0.0<br/>samples = 14<br/>value = [0, 14, 0, 0, 0]<br/>class = not_recom>, fillcolor="#7be539"] ;
115 -> 116 ;
117 [label=<form &le; 0.5<br/>entropy = 0.353<br/>samples = 15<br/>value = [0, 1, 0, 14, 0]<br/>class = very_recom>, fillcolor="#4a47e7"] ;
115 -> 117 ;
118 [label=<children &le; 1.0<br/>entropy = 0.918<br/>samples = 3<br/>value = [0, 1, 0, 2, 0]<br/>class = very_recom>, fillcolor="#9e9cf2"] ;
117 -> 118 ;
119 [label=<entropy = 0.0<br/>samples = 1<br/>value = [0, 1, 0, 0, 0]<br/>class = not_recom>, fillcolor="#7be539"] ;
118 -> 119 ;
120 [label=<entropy = 0.0<br/>samples = 2<br/>value = [0, 0, 0, 2, 0]<br/>class = very_recom>, fillcolor="#3c39e5"] ;
118 -> 120 ;
121 [label=<entropy = 0.0<br/>samples = 12<br/>value = [0, 0, 0, 12, 0]<br/>class = very_recom>, fillcolor="#3c39e5"] ;
117 -> 121 ;
122 [label=<entropy = 0.0<br/>samples = 15<br/>value = [0, 15, 0, 0, 0]<br/>class = not_recom>, fillcolor="#7be539"] ;
114 -> 122 ;
123 [label=<children &le; 1.5<br/>entropy = 0.732<br/>samples = 39<br/>value = [0, 8, 0, 31, 0]<br/>class = very_recom>, fillcolor="#6e6cec"] ;
113 -> 123 ;
124 [label=<form &le; 1.5<br/>entropy = 0.991<br/>samples = 18<br/>value = [0, 8, 0, 10, 0]<br/>class = very_recom>, fillcolor="#d8d7fa"] ;
123 -> 124 ;
125 [label=<social &le; 0.5<br/>entropy = 0.918<br/>samples = 9<br/>value = [0, 6, 0, 3, 0]<br/>class = not_recom>, fillcolor="#bdf29c"] ;
124 -> 125 ;
126 [label=<entropy = 0.0<br/>samples = 3<br/>value = [0, 3, 0, 0, 0]<br/>class = not_recom>, fillcolor="#7be539"] ;
125 -> 126 ;
127 [label=<social &le; 1.5<br/>entropy = 1.0<br/>samples = 6<br/>value = [0, 3, 0, 3, 0]<br/>class = not_recom>, fillcolor="#ffffff"] ;
125 -> 127 ;
128 [label=<entropy = 0.0<br/>samples = 3<br/>value = [0, 0, 0, 3, 0]<br/>class = very_recom>, fillcolor="#3c39e5"] ;
127 -> 128 ;
129 [label=<entropy = 0.0<br/>samples = 3<br/>value = [0, 3, 0, 0, 0]<br/>class = not_recom>, fillcolor="#7be539"] ;
127 -> 129 ;
130 [label=<form &le; 2.5<br/>entropy = 0.764<br/>samples = 9<br/>value = [0, 2, 0, 7, 0]<br/>class = very_recom>, fillcolor="#7472ec"] ;
124 -> 130 ;
131 [label=<entropy = 0.0<br/>samples = 5<br/>value = [0, 0, 0, 5, 0]<br/>class = very_recom>, fillcolor="#3c39e5"] ;
130 -> 131 ;
132 [label=<children &le; 0.5<br/>entropy = 1.0<br/>samples = 4<br/>value = [0, 2, 0, 2, 0]<br/>class = not_recom>, fillcolor="#ffffff"] ;
130 -> 132 ;
133 [label=<social &le; 0.5<br/>entropy = 0.918<br/>samples = 3<br/>value = [0, 2, 0, 1, 0]<br/>class = not_recom>, fillcolor="#bdf29c"] ;
132 -> 133 ;
134 [label=<entropy = 0.0<br/>samples = 1<br/>value = [0, 1, 0, 0, 0]<br/>class = not_recom>, fillcolor="#7be539"] ;
133 -> 134 ;
135 [label=<social &le; 1.5<br/>entropy = 1.0<br/>samples = 2<br/>value = [0, 1, 0, 1, 0]<br/>class = not_recom>, fillcolor="#ffffff"] ;
133 -> 135 ;
136 [label=<entropy = 0.0<br/>samples = 1<br/>value = [0, 0, 0, 1, 0]<br/>class = very_recom>, fillcolor="#3c39e5"] ;
135 -> 136 ;
137 [label=<entropy = 0.0<br/>samples = 1<br/>value = [0, 1, 0, 0, 0]<br/>class = not_recom>, fillcolor="#7be539"] ;
135 -> 137 ;
138 [label=<entropy = 0.0<br/>samples = 1<br/>value = [0, 0, 0, 1, 0]<br/>class = very_recom>, fillcolor="#3c39e5"] ;
132 -> 138 ;
139 [label=<entropy = 0.0<br/>samples = 21<br/>value = [0, 0, 0, 21, 0]<br/>class = very_recom>, fillcolor="#3c39e5"] ;
123 -> 139 ;
140 [label=<children &le; 1.5<br/>entropy = 0.572<br/>samples = 170<br/>value = [0, 23, 0, 147, 0]<br/>class = very_recom>, fillcolor="#5b58e9"] ;
112 -> 140 ;
141 [label=<housing &le; 1.5<br/>entropy = 0.833<br/>samples = 87<br/>value = [0, 23, 0, 64, 0]<br/>class = very_recom>, fillcolor="#8280ee"] ;
140 -> 141 ;
142 [label=<form &le; 0.5<br/>entropy = 0.433<br/>samples = 45<br/>value = [0, 4, 0, 41, 0]<br/>class = very_recom>, fillcolor="#4f4ce8"] ;
141 -> 142 ;
143 [label=<children &le; 0.5<br/>entropy = 0.918<br/>samples = 12<br/>value = [0, 4, 0, 8, 0]<br/>class = very_recom>, fillcolor="#9e9cf2"] ;
142 -> 143 ;
144 [label=<social &le; 0.5<br/>entropy = 0.918<br/>samples = 6<br/>value = [0, 4, 0, 2, 0]<br/>class = not_recom>, fillcolor="#bdf29c"] ;
143 -> 144 ;
145 [label=<entropy = 0.0<br/>samples = 2<br/>value = [0, 2, 0, 0, 0]<br/>class = not_recom>, fillcolor="#7be539"] ;
144 -> 145 ;
146 [label=<social &le; 1.5<br/>entropy = 1.0<br/>samples = 4<br/>value = [0, 2, 0, 2, 0]<br/>class = not_recom>, fillcolor="#ffffff"] ;
144 -> 146 ;
147 [label=<entropy = 0.0<br/>samples = 2<br/>value = [0, 0, 0, 2, 0]<br/>class = very_recom>, fillcolor="#3c39e5"] ;
146 -> 147 ;
148 [label=<entropy = 0.0<br/>samples = 2<br/>value = [0, 2, 0, 0, 0]<br/>class = not_recom>, fillcolor="#7be539"] ;
146 -> 148 ;
149 [label=<entropy = 0.0<br/>samples = 6<br/>value = [0, 0, 0, 6, 0]<br/>class = very_recom>, fillcolor="#3c39e5"] ;
143 -> 149 ;
150 [label=<entropy = 0.0<br/>samples = 33<br/>value = [0, 0, 0, 33, 0]<br/>class = very_recom>, fillcolor="#3c39e5"] ;
142 -> 150 ;
151 [label=<form &le; 1.5<br/>entropy = 0.993<br/>samples = 42<br/>value = [0, 19, 0, 23, 0]<br/>class = very_recom>, fillcolor="#ddddfa"] ;
141 -> 151 ;
152 [label=<social &le; 1.5<br/>entropy = 0.932<br/>samples = 23<br/>value = [0, 15, 0, 8, 0]<br/>class = not_recom>, fillcolor="#c1f3a3"] ;
151 -> 152 ;
153 [label=<social &le; 0.5<br/>entropy = 0.997<br/>samples = 15<br/>value = [0, 7, 0, 8, 0]<br/>class = very_recom>, fillcolor="#e7e6fc"] ;
152 -> 153 ;
154 [label=<entropy = 0.0<br/>samples = 7<br/>value = [0, 7, 0, 0, 0]<br/>class = not_recom>, fillcolor="#7be539"] ;
153 -> 154 ;
155 [label=<entropy = 0.0<br/>samples = 8<br/>value = [0, 0, 0, 8, 0]<br/>class = very_recom>, fillcolor="#3c39e5"] ;
153 -> 155 ;
156 [label=<entropy = 0.0<br/>samples = 8<br/>value = [0, 8, 0, 0, 0]<br/>class = not_recom>, fillcolor="#7be539"] ;
152 -> 156 ;
157 [label=<children &le; 0.5<br/>entropy = 0.742<br/>samples = 19<br/>value = [0, 4, 0, 15, 0]<br/>class = very_recom>, fillcolor="#706eec"] ;
151 -> 157 ;
158 [label=<form &le; 2.5<br/>entropy = 0.991<br/>samples = 9<br/>value = [0, 4, 0, 5, 0]<br/>class = very_recom>, fillcolor="#d8d7fa"] ;
157 -> 158 ;
159 [label=<entropy = 0.0<br/>samples = 4<br/>value = [0, 0, 0, 4, 0]<br/>class = very_recom>, fillcolor="#3c39e5"] ;
158 -> 159 ;
160 [label=<finance &le; 0.5<br/>entropy = 0.722<br/>samples = 5<br/>value = [0, 4, 0, 1, 0]<br/>class = not_recom>, fillcolor="#9cec6a"] ;
158 -> 160 ;
161 [label=<social &le; 0.5<br/>entropy = 0.918<br/>samples = 3<br/>value = [0, 2, 0, 1, 0]<br/>class = not_recom>, fillcolor="#bdf29c"] ;
160 -> 161 ;
162 [label=<entropy = 0.0<br/>samples = 1<br/>value = [0, 1, 0, 0, 0]<br/>class = not_recom>, fillcolor="#7be539"] ;
161 -> 162 ;
163 [label=<social &le; 1.5<br/>entropy = 1.0<br/>samples = 2<br/>value = [0, 1, 0, 1, 0]<br/>class = not_recom>, fillcolor="#ffffff"] ;
161 -> 163 ;
164 [label=<entropy = 0.0<br/>samples = 1<br/>value = [0, 0, 0, 1, 0]<br/>class = very_recom>, fillcolor="#3c39e5"] ;
163 -> 164 ;
165 [label=<entropy = 0.0<br/>samples = 1<br/>value = [0, 1, 0, 0, 0]<br/>class = not_recom>, fillcolor="#7be539"] ;
163 -> 165 ;
166 [label=<entropy = 0.0<br/>samples = 2<br/>value = [0, 2, 0, 0, 0]<br/>class = not_recom>, fillcolor="#7be539"] ;
160 -> 166 ;
167 [label=<entropy = 0.0<br/>samples = 10<br/>value = [0, 0, 0, 10, 0]<br/>class = very_recom>, fillcolor="#3c39e5"] ;
157 -> 167 ;
168 [label=<entropy = 0.0<br/>samples = 83<br/>value = [0, 0, 0, 83, 0]<br/>class = very_recom>, fillcolor="#3c39e5"] ;
140 -> 168 ;
169 [label=<social &le; 1.5<br/>entropy = 0.752<br/>samples = 260<br/>value = [0, 204, 0, 56, 0]<br/>class = not_recom>, fillcolor="#9fec6f"] ;
111 -> 169 ;
170 [label=<social &le; 0.5<br/>entropy = 0.914<br/>samples = 170<br/>value = [0, 114, 0, 56, 0]<br/>class = not_recom>, fillcolor="#bcf29a"] ;
169 -> 170 ;
171 [label=<entropy = 0.0<br/>samples = 84<br/>value = [0, 84, 0, 0, 0]<br/>class = not_recom>, fillcolor="#7be539"] ;
170 -> 171 ;
172 [label=<housing &le; 0.5<br/>entropy = 0.933<br/>samples = 86<br/>value = [0, 30, 0, 56, 0]<br/>class = very_recom>, fillcolor="#a4a3f3"] ;
170 -> 172 ;
173 [label=<finance &le; 0.5<br/>entropy = 0.906<br/>samples = 28<br/>value = [0, 19, 0, 9, 0]<br/>class = not_recom>, fillcolor="#baf197"] ;
172 -> 173 ;
174 [label=<entropy = 0.0<br/>samples = 14<br/>value = [0, 14, 0, 0, 0]<br/>class = not_recom>, fillcolor="#7be539"] ;
173 -> 174 ;
175 [label=<children &le; 1.5<br/>entropy = 0.94<br/>samples = 14<br/>value = [0, 5, 0, 9, 0]<br/>class = very_recom>, fillcolor="#a8a7f3"] ;
173 -> 175 ;
176 [label=<form &le; 1.5<br/>entropy = 0.954<br/>samples = 8<br/>value = [0, 5, 0, 3, 0]<br/>class = not_recom>, fillcolor="#caf5b0"] ;
175 -> 176 ;
177 [label=<entropy = 0.0<br/>samples = 4<br/>value = [0, 4, 0, 0, 0]<br/>class = not_recom>, fillcolor="#7be539"] ;
176 -> 177 ;
178 [label=<form &le; 2.5<br/>entropy = 0.811<br/>samples = 4<br/>value = [0, 1, 0, 3, 0]<br/>class = very_recom>, fillcolor="#7d7bee"] ;
176 -> 178 ;
179 [label=<entropy = 0.0<br/>samples = 2<br/>value = [0, 0, 0, 2, 0]<br/>class = very_recom>, fillcolor="#3c39e5"] ;
178 -> 179 ;
180 [label=<children &le; 0.5<br/>entropy = 1.0<br/>samples = 2<br/>value = [0, 1, 0, 1, 0]<br/>class = not_recom>, fillcolor="#ffffff"] ;
178 -> 180 ;
181 [label=<entropy = 0.0<br/>samples = 1<br/>value = [0, 1, 0, 0, 0]<br/>class = not_recom>, fillcolor="#7be539"] ;
180 -> 181 ;
182 [label=<entropy = 0.0<br/>samples = 1<br/>value = [0, 0, 0, 1, 0]<br/>class = very_recom>, fillcolor="#3c39e5"] ;
180 -> 182 ;
183 [label=<entropy = 0.0<br/>samples = 6<br/>value = [0, 0, 0, 6, 0]<br/>class = very_recom>, fillcolor="#3c39e5"] ;
175 -> 183 ;
184 [label=<children &le; 1.5<br/>entropy = 0.701<br/>samples = 58<br/>value = [0, 11, 0, 47, 0]<br/>class = very_recom>, fillcolor="#6a67eb"] ;
172 -> 184 ;
185 [label=<form &le; 0.5<br/>entropy = 0.958<br/>samples = 29<br/>value = [0, 11, 0, 18, 0]<br/>class = very_recom>, fillcolor="#b3b2f5"] ;
184 -> 185 ;
186 [label=<children &le; 0.5<br/>entropy = 0.592<br/>samples = 7<br/>value = [0, 6, 0, 1, 0]<br/>class = not_recom>, fillcolor="#91e95a"] ;
185 -> 186 ;
187 [label=<entropy = 0.0<br/>samples = 4<br/>value = [0, 4, 0, 0, 0]<br/>class = not_recom>, fillcolor="#7be539"] ;
186 -> 187 ;
188 [label=<housing &le; 1.5<br/>entropy = 0.918<br/>samples = 3<br/>value = [0, 2, 0, 1, 0]<br/>class = not_recom>, fillcolor="#bdf29c"] ;
186 -> 188 ;
189 [label=<entropy = 0.0<br/>samples = 1<br/>value = [0, 0, 0, 1, 0]<br/>class = very_recom>, fillcolor="#3c39e5"] ;
188 -> 189 ;
190 [label=<entropy = 0.0<br/>samples = 2<br/>value = [0, 2, 0, 0, 0]<br/>class = not_recom>, fillcolor="#7be539"] ;
188 -> 190 ;
191 [label=<housing &le; 1.5<br/>entropy = 0.773<br/>samples = 22<br/>value = [0, 5, 0, 17, 0]<br/>class = very_recom>, fillcolor="#7573ed"] ;
185 -> 191 ;
192 [label=<entropy = 0.0<br/>samples = 11<br/>value = [0, 0, 0, 11, 0]<br/>class = very_recom>, fillcolor="#3c39e5"] ;
191 -> 192 ;
193 [label=<form &le; 1.5<br/>entropy = 0.994<br/>samples = 11<br/>value = [0, 5, 0, 6, 0]<br/>class = very_recom>, fillcolor="#dedefb"] ;
191 -> 193 ;
194 [label=<entropy = 0.0<br/>samples = 3<br/>value = [0, 3, 0, 0, 0]<br/>class = not_recom>, fillcolor="#7be539"] ;
193 -> 194 ;
195 [label=<form &le; 2.5<br/>entropy = 0.811<br/>samples = 8<br/>value = [0, 2, 0, 6, 0]<br/>class = very_recom>, fillcolor="#7d7bee"] ;
193 -> 195 ;
196 [label=<entropy = 0.0<br/>samples = 4<br/>value = [0, 0, 0, 4, 0]<br/>class = very_recom>, fillcolor="#3c39e5"] ;
195 -> 196 ;
197 [label=<children &le; 0.5<br/>entropy = 1.0<br/>samples = 4<br/>value = [0, 2, 0, 2, 0]<br/>class = not_recom>, fillcolor="#ffffff"] ;
195 -> 197 ;
198 [label=<entropy = 0.0<br/>samples = 2<br/>value = [0, 2, 0, 0, 0]<br/>class = not_recom>, fillcolor="#7be539"] ;
197 -> 198 ;
199 [label=<entropy = 0.0<br/>samples = 2<br/>value = [0, 0, 0, 2, 0]<br/>class = very_recom>, fillcolor="#3c39e5"] ;
197 -> 199 ;
200 [label=<entropy = 0.0<br/>samples = 29<br/>value = [0, 0, 0, 29, 0]<br/>class = very_recom>, fillcolor="#3c39e5"] ;
184 -> 200 ;
201 [label=<entropy = 0.0<br/>samples = 90<br/>value = [0, 90, 0, 0, 0]<br/>class = not_recom>, fillcolor="#7be539"] ;
169 -> 201 ;
202 [label=<has_nurs &le; 0.5<br/>entropy = 1.041<br/>samples = 1044<br/>value = [0, 760, 0, 227, 57]<br/>class = not_recom>, fillcolor="#a9ee7e"] ;
4 -> 202 ;
203 [label=<health &le; 1.5<br/>entropy = 0.988<br/>samples = 521<br/>value = [0, 294, 0, 227, 0]<br/>class = not_recom>, fillcolor="#e1f9d2"] ;
202 -> 203 ;
204 [label=<housing &le; 0.5<br/>entropy = 0.935<br/>samples = 256<br/>value = [0, 90, 0, 166, 0]<br/>class = very_recom>, fillcolor="#a6a4f3"] ;
203 -> 204 ;
205 [label=<finance &le; 0.5<br/>entropy = 0.902<br/>samples = 88<br/>value = [0, 60, 0, 28, 0]<br/>class = not_recom>, fillcolor="#b9f195"] ;
204 -> 205 ;
206 [label=<entropy = 0.0<br/>samples = 46<br/>value = [0, 46, 0, 0, 0]<br/>class = not_recom>, fillcolor="#7be539"] ;
205 -> 206 ;
207 [label=<children &le; 1.5<br/>entropy = 0.918<br/>samples = 42<br/>value = [0, 14, 0, 28, 0]<br/>class = very_recom>, fillcolor="#9e9cf2"] ;
205 -> 207 ;
208 [label=<form &le; 1.5<br/>entropy = 0.946<br/>samples = 22<br/>value = [0, 14, 0, 8, 0]<br/>class = not_recom>, fillcolor="#c6f4aa"] ;
207 -> 208 ;
209 [label=<entropy = 0.0<br/>samples = 11<br/>value = [0, 11, 0, 0, 0]<br/>class = not_recom>, fillcolor="#7be539"] ;
208 -> 209 ;
210 [label=<children &le; 0.5<br/>entropy = 0.845<br/>samples = 11<br/>value = [0, 3, 0, 8, 0]<br/>class = very_recom>, fillcolor="#8583ef"] ;
208 -> 210 ;
211 [label=<form &le; 2.5<br/>entropy = 0.971<br/>samples = 5<br/>value = [0, 3, 0, 2, 0]<br/>class = not_recom>, fillcolor="#d3f6bd"] ;
210 -> 211 ;
212 [label=<entropy = 0.0<br/>samples = 2<br/>value = [0, 0, 0, 2, 0]<br/>class = very_recom>, fillcolor="#3c39e5"] ;
211 -> 212 ;
213 [label=<entropy = 0.0<br/>samples = 3<br/>value = [0, 3, 0, 0, 0]<br/>class = not_recom>, fillcolor="#7be539"] ;
211 -> 213 ;
214 [label=<entropy = 0.0<br/>samples = 6<br/>value = [0, 0, 0, 6, 0]<br/>class = very_recom>, fillcolor="#3c39e5"] ;
210 -> 214 ;
215 [label=<entropy = 0.0<br/>samples = 20<br/>value = [0, 0, 0, 20, 0]<br/>class = very_recom>, fillcolor="#3c39e5"] ;
207 -> 215 ;
216 [label=<children &le; 1.5<br/>entropy = 0.677<br/>samples = 168<br/>value = [0, 30, 0, 138, 0]<br/>class = very_recom>, fillcolor="#6664eb"] ;
204 -> 216 ;
217 [label=<housing &le; 1.5<br/>entropy = 0.944<br/>samples = 83<br/>value = [0, 30, 0, 53, 0]<br/>class = very_recom>, fillcolor="#aaa9f4"] ;
216 -> 217 ;
218 [label=<form &le; 0.5<br/>entropy = 0.575<br/>samples = 44<br/>value = [0, 6, 0, 38, 0]<br/>class = very_recom>, fillcolor="#5b58e9"] ;
217 -> 218 ;
219 [label=<children &le; 0.5<br/>entropy = 1.0<br/>samples = 12<br/>value = [0, 6, 0, 6, 0]<br/>class = not_recom>, fillcolor="#ffffff"] ;
218 -> 219 ;
220 [label=<entropy = 0.0<br/>samples = 6<br/>value = [0, 6, 0, 0, 0]<br/>class = not_recom>, fillcolor="#7be539"] ;
219 -> 220 ;
221 [label=<entropy = 0.0<br/>samples = 6<br/>value = [0, 0, 0, 6, 0]<br/>class = very_recom>, fillcolor="#3c39e5"] ;
219 -> 221 ;
222 [label=<entropy = 0.0<br/>samples = 32<br/>value = [0, 0, 0, 32, 0]<br/>class = very_recom>, fillcolor="#3c39e5"] ;
218 -> 222 ;
223 [label=<form &le; 1.5<br/>entropy = 0.961<br/>samples = 39<br/>value = [0, 24, 0, 15, 0]<br/>class = not_recom>, fillcolor="#cef5b5"] ;
217 -> 223 ;
224 [label=<entropy = 0.0<br/>samples = 19<br/>value = [0, 19, 0, 0, 0]<br/>class = not_recom>, fillcolor="#7be539"] ;
223 -> 224 ;
225 [label=<form &le; 2.5<br/>entropy = 0.811<br/>samples = 20<br/>value = [0, 5, 0, 15, 0]<br/>class = very_recom>, fillcolor="#7d7bee"] ;
223 -> 225 ;
226 [label=<entropy = 0.0<br/>samples = 10<br/>value = [0, 0, 0, 10, 0]<br/>class = very_recom>, fillcolor="#3c39e5"] ;
225 -> 226 ;
227 [label=<children &le; 0.5<br/>entropy = 1.0<br/>samples = 10<br/>value = [0, 5, 0, 5, 0]<br/>class = not_recom>, fillcolor="#ffffff"] ;
225 -> 227 ;
228 [label=<entropy = 0.0<br/>samples = 5<br/>value = [0, 5, 0, 0, 0]<br/>class = not_recom>, fillcolor="#7be539"] ;
227 -> 228 ;
229 [label=<entropy = 0.0<br/>samples = 5<br/>value = [0, 0, 0, 5, 0]<br/>class = very_recom>, fillcolor="#3c39e5"] ;
227 -> 229 ;
230 [label=<entropy = 0.0<br/>samples = 85<br/>value = [0, 0, 0, 85, 0]<br/>class = very_recom>, fillcolor="#3c39e5"] ;
216 -> 230 ;
231 [label=<social &le; 0.5<br/>entropy = 0.778<br/>samples = 265<br/>value = [0, 204, 0, 61, 0]<br/>class = not_recom>, fillcolor="#a2ed74"] ;
203 -> 231 ;
232 [label=<entropy = 0.0<br/>samples = 87<br/>value = [0, 87, 0, 0, 0]<br/>class = not_recom>, fillcolor="#7be539"] ;
231 -> 232 ;
233 [label=<social &le; 1.5<br/>entropy = 0.927<br/>samples = 178<br/>value = [0, 117, 0, 61, 0]<br/>class = not_recom>, fillcolor="#c0f3a0"] ;
231 -> 233 ;
234 [label=<children &le; 1.5<br/>entropy = 0.922<br/>samples = 92<br/>value = [0, 31, 0, 61, 0]<br/>class = very_recom>, fillcolor="#9f9ef2"] ;
233 -> 234 ;
235 [label=<form &le; 1.5<br/>entropy = 0.997<br/>samples = 47<br/>value = [0, 25, 0, 22, 0]<br/>class = not_recom>, fillcolor="#effce7"] ;
234 -> 235 ;
236 [label=<housing &le; 0.5<br/>entropy = 0.755<br/>samples = 23<br/>value = [0, 18, 0, 5, 0]<br/>class = not_recom>, fillcolor="#a0ec70"] ;
235 -> 236 ;
237 [label=<entropy = 0.0<br/>samples = 8<br/>value = [0, 8, 0, 0, 0]<br/>class = not_recom>, fillcolor="#7be539"] ;
236 -> 237 ;
238 [label=<housing &le; 1.5<br/>entropy = 0.918<br/>samples = 15<br/>value = [0, 10, 0, 5, 0]<br/>class = not_recom>, fillcolor="#bdf29c"] ;
236 -> 238 ;
239 [label=<children &le; 0.5<br/>entropy = 0.863<br/>samples = 7<br/>value = [0, 2, 0, 5, 0]<br/>class = very_recom>, fillcolor="#8a88ef"] ;
238 -> 239 ;
240 [label=<form &le; 0.5<br/>entropy = 1.0<br/>samples = 4<br/>value = [0, 2, 0, 2, 0]<br/>class = not_recom>, fillcolor="#ffffff"] ;
239 -> 240 ;
241 [label=<entropy = 0.0<br/>samples = 2<br/>value = [0, 2, 0, 0, 0]<br/>class = not_recom>, fillcolor="#7be539"] ;
240 -> 241 ;
242 [label=<entropy = 0.0<br/>samples = 2<br/>value = [0, 0, 0, 2, 0]<br/>class = very_recom>, fillcolor="#3c39e5"] ;
240 -> 242 ;
243 [label=<entropy = 0.0<br/>samples = 3<br/>value = [0, 0, 0, 3, 0]<br/>class = very_recom>, fillcolor="#3c39e5"] ;
239 -> 243 ;
244 [label=<entropy = 0.0<br/>samples = 8<br/>value = [0, 8, 0, 0, 0]<br/>class = not_recom>, fillcolor="#7be539"] ;
238 -> 244 ;
245 [label=<housing &le; 0.5<br/>entropy = 0.871<br/>samples = 24<br/>value = [0, 7, 0, 17, 0]<br/>class = very_recom>, fillcolor="#8c8bf0"] ;
235 -> 245 ;
246 [label=<finance &le; 0.5<br/>entropy = 0.954<br/>samples = 8<br/>value = [0, 5, 0, 3, 0]<br/>class = not_recom>, fillcolor="#caf5b0"] ;
245 -> 246 ;
247 [label=<entropy = 0.0<br/>samples = 4<br/>value = [0, 4, 0, 0, 0]<br/>class = not_recom>, fillcolor="#7be539"] ;
246 -> 247 ;
248 [label=<form &le; 2.5<br/>entropy = 0.811<br/>samples = 4<br/>value = [0, 1, 0, 3, 0]<br/>class = very_recom>, fillcolor="#7d7bee"] ;
246 -> 248 ;
249 [label=<entropy = 0.0<br/>samples = 2<br/>value = [0, 0, 0, 2, 0]<br/>class = very_recom>, fillcolor="#3c39e5"] ;
248 -> 249 ;
250 [label=<children &le; 0.5<br/>entropy = 1.0<br/>samples = 2<br/>value = [0, 1, 0, 1, 0]<br/>class = not_recom>, fillcolor="#ffffff"] ;
248 -> 250 ;
251 [label=<entropy = 0.0<br/>samples = 1<br/>value = [0, 1, 0, 0, 0]<br/>class = not_recom>, fillcolor="#7be539"] ;
250 -> 251 ;
252 [label=<entropy = 0.0<br/>samples = 1<br/>value = [0, 0, 0, 1, 0]<br/>class = very_recom>, fillcolor="#3c39e5"] ;
250 -> 252 ;
253 [label=<form &le; 2.5<br/>entropy = 0.544<br/>samples = 16<br/>value = [0, 2, 0, 14, 0]<br/>class = very_recom>, fillcolor="#5855e9"] ;
245 -> 253 ;
254 [label=<entropy = 0.0<br/>samples = 8<br/>value = [0, 0, 0, 8, 0]<br/>class = very_recom>, fillcolor="#3c39e5"] ;
253 -> 254 ;
255 [label=<housing &le; 1.5<br/>entropy = 0.811<br/>samples = 8<br/>value = [0, 2, 0, 6, 0]<br/>class = very_recom>, fillcolor="#7d7bee"] ;
253 -> 255 ;
256 [label=<entropy = 0.0<br/>samples = 4<br/>value = [0, 0, 0, 4, 0]<br/>class = very_recom>, fillcolor="#3c39e5"] ;
255 -> 256 ;
257 [label=<children &le; 0.5<br/>entropy = 1.0<br/>samples = 4<br/>value = [0, 2, 0, 2, 0]<br/>class = not_recom>, fillcolor="#ffffff"] ;
255 -> 257 ;
258 [label=<entropy = 0.0<br/>samples = 2<br/>value = [0, 2, 0, 0, 0]<br/>class = not_recom>, fillcolor="#7be539"] ;
257 -> 258 ;
259 [label=<entropy = 0.0<br/>samples = 2<br/>value = [0, 0, 0, 2, 0]<br/>class = very_recom>, fillcolor="#3c39e5"] ;
257 -> 259 ;
260 [label=<housing &le; 0.5<br/>entropy = 0.567<br/>samples = 45<br/>value = [0, 6, 0, 39, 0]<br/>class = very_recom>, fillcolor="#5a57e9"] ;
234 -> 260 ;
261 [label=<finance &le; 0.5<br/>entropy = 0.985<br/>samples = 14<br/>value = [0, 6, 0, 8, 0]<br/>class = very_recom>, fillcolor="#cecef8"] ;
260 -> 261 ;
262 [label=<entropy = 0.0<br/>samples = 6<br/>value = [0, 6, 0, 0, 0]<br/>class = not_recom>, fillcolor="#7be539"] ;
261 -> 262 ;
263 [label=<entropy = 0.0<br/>samples = 8<br/>value = [0, 0, 0, 8, 0]<br/>class = very_recom>, fillcolor="#3c39e5"] ;
261 -> 263 ;
264 [label=<entropy = 0.0<br/>samples = 31<br/>value = [0, 0, 0, 31, 0]<br/>class = very_recom>, fillcolor="#3c39e5"] ;
260 -> 264 ;
265 [label=<entropy = 0.0<br/>samples = 86<br/>value = [0, 86, 0, 0, 0]<br/>class = not_recom>, fillcolor="#7be539"] ;
233 -> 265 ;
266 [label=<health &le; 1.5<br/>entropy = 0.497<br/>samples = 523<br/>value = [0, 466, 0, 0, 57]<br/>class = not_recom>, fillcolor="#8be851"] ;
202 -> 266 ;
267 [label=<entropy = 0.0<br/>samples = 264<br/>value = [0, 264, 0, 0, 0]<br/>class = not_recom>, fillcolor="#7be539"] ;
266 -> 267 ;
268 [label=<children &le; 1.5<br/>entropy = 0.76<br/>samples = 259<br/>value = [0, 202, 0, 0, 57]<br/>class = not_recom>, fillcolor="#a0ec71"] ;
266 -> 268 ;
269 [label=<form &le; 1.5<br/>entropy = 0.938<br/>samples = 127<br/>value = [0, 82, 0, 0, 45]<br/>class = not_recom>, fillcolor="#c3f3a6"] ;
268 -> 269 ;
270 [label=<social &le; 1.5<br/>entropy = 1.0<br/>samples = 65<br/>value = [0, 32, 0, 0, 33]<br/>class = spec_prior>, fillcolor="#fef9fd"] ;
269 -> 270 ;
271 [label=<social &le; 0.5<br/>entropy = 0.962<br/>samples = 44<br/>value = [0, 27, 0, 0, 17]<br/>class = not_recom>, fillcolor="#cef5b6"] ;
270 -> 271 ;
272 [label=<housing &le; 1.5<br/>entropy = 0.828<br/>samples = 23<br/>value = [0, 6, 0, 0, 17]<br/>class = spec_prior>, fillcolor="#ee7fd6"] ;
271 -> 272 ;
273 [label=<housing &le; 0.5<br/>entropy = 0.971<br/>samples = 15<br/>value = [0, 6, 0, 0, 9]<br/>class = spec_prior>, fillcolor="#f6bdea"] ;
272 -> 273 ;
274 [label=<entropy = 0.0<br/>samples = 7<br/>value = [0, 0, 0, 0, 7]<br/>class = spec_prior>, fillcolor="#e539c0"] ;
273 -> 274 ;
275 [label=<form &le; 0.5<br/>entropy = 0.811<br/>samples = 8<br/>value = [0, 6, 0, 0, 2]<br/>class = not_recom>, fillcolor="#a7ee7b"] ;
273 -> 275 ;
276 [label=<children &le; 0.5<br/>entropy = 1.0<br/>samples = 4<br/>value = [0, 2, 0, 0, 2]<br/>class = not_recom>, fillcolor="#ffffff"] ;
275 -> 276 ;
277 [label=<entropy = 0.0<br/>samples = 2<br/>value = [0, 0, 0, 0, 2]<br/>class = spec_prior>, fillcolor="#e539c0"] ;
276 -> 277 ;
278 [label=<entropy = 0.0<br/>samples = 2<br/>value = [0, 2, 0, 0, 0]<br/>class = not_recom>, fillcolor="#7be539"] ;
276 -> 278 ;
279 [label=<entropy = 0.0<br/>samples = 4<br/>value = [0, 4, 0, 0, 0]<br/>class = not_recom>, fillcolor="#7be539"] ;
275 -> 279 ;
280 [label=<entropy = 0.0<br/>samples = 8<br/>value = [0, 0, 0, 0, 8]<br/>class = spec_prior>, fillcolor="#e539c0"] ;
272 -> 280 ;
281 [label=<entropy = 0.0<br/>samples = 21<br/>value = [0, 21, 0, 0, 0]<br/>class = not_recom>, fillcolor="#7be539"] ;
271 -> 281 ;
282 [label=<housing &le; 0.5<br/>entropy = 0.792<br/>samples = 21<br/>value = [0, 5, 0, 0, 16]<br/>class = spec_prior>, fillcolor="#ed77d4"] ;
270 -> 282 ;
283 [label=<entropy = 0.0<br/>samples = 7<br/>value = [0, 0, 0, 0, 7]<br/>class = spec_prior>, fillcolor="#e539c0"] ;
282 -> 283 ;
284 [label=<housing &le; 1.5<br/>entropy = 0.94<br/>samples = 14<br/>value = [0, 5, 0, 0, 9]<br/>class = spec_prior>, fillcolor="#f3a7e3"] ;
282 -> 284 ;
285 [label=<children &le; 0.5<br/>entropy = 0.863<br/>samples = 7<br/>value = [0, 5, 0, 0, 2]<br/>class = not_recom>, fillcolor="#b0ef88"] ;
284 -> 285 ;
286 [label=<form &le; 0.5<br/>entropy = 1.0<br/>samples = 4<br/>value = [0, 2, 0, 0, 2]<br/>class = not_recom>, fillcolor="#ffffff"] ;
285 -> 286 ;
287 [label=<entropy = 0.0<br/>samples = 2<br/>value = [0, 0, 0, 0, 2]<br/>class = spec_prior>, fillcolor="#e539c0"] ;
286 -> 287 ;
288 [label=<entropy = 0.0<br/>samples = 2<br/>value = [0, 2, 0, 0, 0]<br/>class = not_recom>, fillcolor="#7be539"] ;
286 -> 288 ;
289 [label=<entropy = 0.0<br/>samples = 3<br/>value = [0, 3, 0, 0, 0]<br/>class = not_recom>, fillcolor="#7be539"] ;
285 -> 289 ;
290 [label=<entropy = 0.0<br/>samples = 7<br/>value = [0, 0, 0, 0, 7]<br/>class = spec_prior>, fillcolor="#e539c0"] ;
284 -> 290 ;
291 [label=<housing &le; 0.5<br/>entropy = 0.709<br/>samples = 62<br/>value = [0, 50, 0, 0, 12]<br/>class = not_recom>, fillcolor="#9beb69"] ;
269 -> 291 ;
292 [label=<finance &le; 0.5<br/>entropy = 0.971<br/>samples = 20<br/>value = [0, 12, 0, 0, 8]<br/>class = not_recom>, fillcolor="#d3f6bd"] ;
291 -> 292 ;
293 [label=<social &le; 1.5<br/>entropy = 0.946<br/>samples = 11<br/>value = [0, 4, 0, 0, 7]<br/>class = spec_prior>, fillcolor="#f4aae4"] ;
292 -> 293 ;
294 [label=<social &le; 0.5<br/>entropy = 0.985<br/>samples = 7<br/>value = [0, 4, 0, 0, 3]<br/>class = not_recom>, fillcolor="#def8ce"] ;
293 -> 294 ;
295 [label=<entropy = 0.0<br/>samples = 3<br/>value = [0, 0, 0, 0, 3]<br/>class = spec_prior>, fillcolor="#e539c0"] ;
294 -> 295 ;
296 [label=<entropy = 0.0<br/>samples = 4<br/>value = [0, 4, 0, 0, 0]<br/>class = not_recom>, fillcolor="#7be539"] ;
294 -> 296 ;
297 [label=<entropy = 0.0<br/>samples = 4<br/>value = [0, 0, 0, 0, 4]<br/>class = spec_prior>, fillcolor="#e539c0"] ;
293 -> 297 ;
298 [label=<social &le; 1.5<br/>entropy = 0.503<br/>samples = 9<br/>value = [0, 8, 0, 0, 1]<br/>class = not_recom>, fillcolor="#8ce852"] ;
292 -> 298 ;
299 [label=<entropy = 0.0<br/>samples = 6<br/>value = [0, 6, 0, 0, 0]<br/>class = not_recom>, fillcolor="#7be539"] ;
298 -> 299 ;
300 [label=<children &le; 0.5<br/>entropy = 0.918<br/>samples = 3<br/>value = [0, 2, 0, 0, 1]<br/>class = not_recom>, fillcolor="#bdf29c"] ;
298 -> 300 ;
301 [label=<entropy = 0.0<br/>samples = 1<br/>value = [0, 0, 0, 0, 1]<br/>class = spec_prior>, fillcolor="#e539c0"] ;
300 -> 301 ;
302 [label=<entropy = 0.0<br/>samples = 2<br/>value = [0, 2, 0, 0, 0]<br/>class = not_recom>, fillcolor="#7be539"] ;
300 -> 302 ;
303 [label=<children &le; 0.5<br/>entropy = 0.454<br/>samples = 42<br/>value = [0, 38, 0, 0, 4]<br/>class = not_recom>, fillcolor="#89e84e"] ;
291 -> 303 ;
304 [label=<form &le; 2.5<br/>entropy = 0.722<br/>samples = 20<br/>value = [0, 16, 0, 0, 4]<br/>class = not_recom>, fillcolor="#9cec6a"] ;
303 -> 304 ;
305 [label=<entropy = 0.0<br/>samples = 10<br/>value = [0, 10, 0, 0, 0]<br/>class = not_recom>, fillcolor="#7be539"] ;
304 -> 305 ;
306 [label=<housing &le; 1.5<br/>entropy = 0.971<br/>samples = 10<br/>value = [0, 6, 0, 0, 4]<br/>class = not_recom>, fillcolor="#d3f6bd"] ;
304 -> 306 ;
307 [label=<entropy = 0.0<br/>samples = 5<br/>value = [0, 5, 0, 0, 0]<br/>class = not_recom>, fillcolor="#7be539"] ;
306 -> 307 ;
308 [label=<finance &le; 0.5<br/>entropy = 0.722<br/>samples = 5<br/>value = [0, 1, 0, 0, 4]<br/>class = spec_prior>, fillcolor="#ec6ad0"] ;
306 -> 308 ;
309 [label=<entropy = 0.0<br/>samples = 2<br/>value = [0, 0, 0, 0, 2]<br/>class = spec_prior>, fillcolor="#e539c0"] ;
308 -> 309 ;
310 [label=<social &le; 0.5<br/>entropy = 0.918<br/>samples = 3<br/>value = [0, 1, 0, 0, 2]<br/>class = spec_prior>, fillcolor="#f29ce0"] ;
308 -> 310 ;
311 [label=<entropy = 0.0<br/>samples = 1<br/>value = [0, 0, 0, 0, 1]<br/>class = spec_prior>, fillcolor="#e539c0"] ;
310 -> 311 ;
312 [label=<social &le; 1.5<br/>entropy = 1.0<br/>samples = 2<br/>value = [0, 1, 0, 0, 1]<br/>class = not_recom>, fillcolor="#ffffff"] ;
310 -> 312 ;
313 [label=<entropy = 0.0<br/>samples = 1<br/>value = [0, 1, 0, 0, 0]<br/>class = not_recom>, fillcolor="#7be539"] ;
312 -> 313 ;
314 [label=<entropy = 0.0<br/>samples = 1<br/>value = [0, 0, 0, 0, 1]<br/>class = spec_prior>, fillcolor="#e539c0"] ;
312 -> 314 ;
315 [label=<entropy = 0.0<br/>samples = 22<br/>value = [0, 22, 0, 0, 0]<br/>class = not_recom>, fillcolor="#7be539"] ;
303 -> 315 ;
316 [label=<housing &le; 0.5<br/>entropy = 0.439<br/>samples = 132<br/>value = [0, 120, 0, 0, 12]<br/>class = not_recom>, fillcolor="#88e84d"] ;
268 -> 316 ;
317 [label=<finance &le; 0.5<br/>entropy = 0.881<br/>samples = 40<br/>value = [0, 28, 0, 0, 12]<br/>class = not_recom>, fillcolor="#b4f08e"] ;
316 -> 317 ;
318 [label=<social &le; 0.5<br/>entropy = 0.971<br/>samples = 20<br/>value = [0, 8, 0, 0, 12]<br/>class = spec_prior>, fillcolor="#f6bdea"] ;
317 -> 318 ;
319 [label=<entropy = 0.0<br/>samples = 6<br/>value = [0, 0, 0, 0, 6]<br/>class = spec_prior>, fillcolor="#e539c0"] ;
318 -> 319 ;
320 [label=<social &le; 1.5<br/>entropy = 0.985<br/>samples = 14<br/>value = [0, 8, 0, 0, 6]<br/>class = not_recom>, fillcolor="#def8ce"] ;
318 -> 320 ;
321 [label=<entropy = 0.0<br/>samples = 8<br/>value = [0, 8, 0, 0, 0]<br/>class = not_recom>, fillcolor="#7be539"] ;
320 -> 321 ;
322 [label=<entropy = 0.0<br/>samples = 6<br/>value = [0, 0, 0, 0, 6]<br/>class = spec_prior>, fillcolor="#e539c0"] ;
320 -> 322 ;
323 [label=<entropy = 0.0<br/>samples = 20<br/>value = [0, 20, 0, 0, 0]<br/>class = not_recom>, fillcolor="#7be539"] ;
317 -> 323 ;
324 [label=<entropy = 0.0<br/>samples = 92<br/>value = [0, 92, 0, 0, 0]<br/>class = not_recom>, fillcolor="#7be539"] ;
316 -> 324 ;
325 [label=<parents &le; 0.5<br/>entropy = 0.969<br/>samples = 3085<br/>value = [0, 2405, 1, 445, 234]<br/>class = not_recom>, fillcolor="#9dec6c"] ;
3 -> 325 ;
326 [label=<health &le; 1.5<br/>entropy = 0.988<br/>samples = 1021<br/>value = [0, 576, 0, 445, 0]<br/>class = not_recom>, fillcolor="#e1f9d2"] ;
325 -> 326 ;
327 [label=<housing &le; 0.5<br/>entropy = 0.93<br/>samples = 510<br/>value = [0, 176, 0, 334, 0]<br/>class = very_recom>, fillcolor="#a3a1f3"] ;
326 -> 327 ;
328 [label=<finance &le; 0.5<br/>entropy = 0.928<br/>samples = 172<br/>value = [0, 113, 0, 59, 0]<br/>class = not_recom>, fillcolor="#c0f3a0"] ;
327 -> 328 ;
329 [label=<entropy = 0.0<br/>samples = 84<br/>value = [0, 84, 0, 0, 0]<br/>class = not_recom>, fillcolor="#7be539"] ;
328 -> 329 ;
330 [label=<children &le; 1.5<br/>entropy = 0.914<br/>samples = 88<br/>value = [0, 29, 0, 59, 0]<br/>class = very_recom>, fillcolor="#9c9af2"] ;
328 -> 330 ;
331 [label=<form &le; 1.5<br/>entropy = 0.95<br/>samples = 46<br/>value = [0, 29, 0, 17, 0]<br/>class = not_recom>, fillcolor="#c8f4ad"] ;
330 -> 331 ;
332 [label=<entropy = 0.0<br/>samples = 23<br/>value = [0, 23, 0, 0, 0]<br/>class = not_recom>, fillcolor="#7be539"] ;
331 -> 332 ;
333 [label=<children &le; 0.5<br/>entropy = 0.828<br/>samples = 23<br/>value = [0, 6, 0, 17, 0]<br/>class = very_recom>, fillcolor="#817fee"] ;
331 -> 333 ;
334 [label=<form &le; 2.5<br/>entropy = 0.994<br/>samples = 11<br/>value = [0, 6, 0, 5, 0]<br/>class = not_recom>, fillcolor="#e9fbde"] ;
333 -> 334 ;
335 [label=<entropy = 0.0<br/>samples = 5<br/>value = [0, 0, 0, 5, 0]<br/>class = very_recom>, fillcolor="#3c39e5"] ;
334 -> 335 ;
336 [label=<entropy = 0.0<br/>samples = 6<br/>value = [0, 6, 0, 0, 0]<br/>class = not_recom>, fillcolor="#7be539"] ;
334 -> 336 ;
337 [label=<entropy = 0.0<br/>samples = 12<br/>value = [0, 0, 0, 12, 0]<br/>class = very_recom>, fillcolor="#3c39e5"] ;
333 -> 337 ;
338 [label=<entropy = 0.0<br/>samples = 42<br/>value = [0, 0, 0, 42, 0]<br/>class = very_recom>, fillcolor="#3c39e5"] ;
330 -> 338 ;
339 [label=<children &le; 1.5<br/>entropy = 0.694<br/>samples = 338<br/>value = [0, 63, 0, 275, 0]<br/>class = very_recom>, fillcolor="#6966eb"] ;
327 -> 339 ;
340 [label=<form &le; 1.5<br/>entropy = 0.954<br/>samples = 168<br/>value = [0, 63, 0, 105, 0]<br/>class = very_recom>, fillcolor="#b1b0f5"] ;
339 -> 340 ;
341 [label=<housing &le; 1.5<br/>entropy = 0.962<br/>samples = 83<br/>value = [0, 51, 0, 32, 0]<br/>class = not_recom>, fillcolor="#cef5b5"] ;
340 -> 341 ;
342 [label=<form &le; 0.5<br/>entropy = 0.82<br/>samples = 43<br/>value = [0, 11, 0, 32, 0]<br/>class = very_recom>, fillcolor="#7f7dee"] ;
341 -> 342 ;
343 [label=<children &le; 0.5<br/>entropy = 1.0<br/>samples = 22<br/>value = [0, 11, 0, 11, 0]<br/>class = not_recom>, fillcolor="#ffffff"] ;
342 -> 343 ;
344 [label=<entropy = 0.0<br/>samples = 11<br/>value = [0, 11, 0, 0, 0]<br/>class = not_recom>, fillcolor="#7be539"] ;
343 -> 344 ;
345 [label=<entropy = 0.0<br/>samples = 11<br/>value = [0, 0, 0, 11, 0]<br/>class = very_recom>, fillcolor="#3c39e5"] ;
343 -> 345 ;
346 [label=<entropy = 0.0<br/>samples = 21<br/>value = [0, 0, 0, 21, 0]<br/>class = very_recom>, fillcolor="#3c39e5"] ;
342 -> 346 ;
347 [label=<entropy = 0.0<br/>samples = 40<br/>value = [0, 40, 0, 0, 0]<br/>class = not_recom>, fillcolor="#7be539"] ;
341 -> 347 ;
348 [label=<children &le; 0.5<br/>entropy = 0.587<br/>samples = 85<br/>value = [0, 12, 0, 73, 0]<br/>class = very_recom>, fillcolor="#5c5ae9"] ;
340 -> 348 ;
349 [label=<form &le; 2.5<br/>entropy = 0.854<br/>samples = 43<br/>value = [0, 12, 0, 31, 0]<br/>class = very_recom>, fillcolor="#8786ef"] ;
348 -> 349 ;
350 [label=<entropy = 0.0<br/>samples = 20<br/>value = [0, 0, 0, 20, 0]<br/>class = very_recom>, fillcolor="#3c39e5"] ;
349 -> 350 ;
351 [label=<housing &le; 1.5<br/>entropy = 0.999<br/>samples = 23<br/>value = [0, 12, 0, 11, 0]<br/>class = not_recom>, fillcolor="#f4fdef"] ;
349 -> 351 ;
352 [label=<entropy = 0.0<br/>samples = 11<br/>value = [0, 0, 0, 11, 0]<br/>class = very_recom>, fillcolor="#3c39e5"] ;
351 -> 352 ;
353 [label=<entropy = 0.0<br/>samples = 12<br/>value = [0, 12, 0, 0, 0]<br/>class = not_recom>, fillcolor="#7be539"] ;
351 -> 353 ;
354 [label=<entropy = 0.0<br/>samples = 42<br/>value = [0, 0, 0, 42, 0]<br/>class = very_recom>, fillcolor="#3c39e5"] ;
348 -> 354 ;
355 [label=<entropy = 0.0<br/>samples = 170<br/>value = [0, 0, 0, 170, 0]<br/>class = very_recom>, fillcolor="#3c39e5"] ;
339 -> 355 ;
356 [label=<social &le; 1.5<br/>entropy = 0.755<br/>samples = 511<br/>value = [0, 400, 0, 111, 0]<br/>class = not_recom>, fillcolor="#a0ec70"] ;
326 -> 356 ;
357 [label=<social &le; 0.5<br/>entropy = 0.915<br/>samples = 336<br/>value = [0, 225, 0, 111, 0]<br/>class = not_recom>, fillcolor="#bcf29b"] ;
356 -> 357 ;
358 [label=<entropy = 0.0<br/>samples = 170<br/>value = [0, 170, 0, 0, 0]<br/>class = not_recom>, fillcolor="#7be539"] ;
357 -> 358 ;
359 [label=<housing &le; 0.5<br/>entropy = 0.916<br/>samples = 166<br/>value = [0, 55, 0, 111, 0]<br/>class = very_recom>, fillcolor="#9d9bf2"] ;
357 -> 359 ;
360 [label=<finance &le; 0.5<br/>entropy = 0.924<br/>samples = 53<br/>value = [0, 35, 0, 18, 0]<br/>class = not_recom>, fillcolor="#bff29f"] ;
359 -> 360 ;
361 [label=<entropy = 0.0<br/>samples = 27<br/>value = [0, 27, 0, 0, 0]<br/>class = not_recom>, fillcolor="#7be539"] ;
360 -> 361 ;
362 [label=<children &le; 1.5<br/>entropy = 0.89<br/>samples = 26<br/>value = [0, 8, 0, 18, 0]<br/>class = very_recom>, fillcolor="#9391f1"] ;
360 -> 362 ;
363 [label=<form &le; 1.5<br/>entropy = 0.985<br/>samples = 14<br/>value = [0, 8, 0, 6, 0]<br/>class = not_recom>, fillcolor="#def8ce"] ;
362 -> 363 ;
364 [label=<entropy = 0.0<br/>samples = 7<br/>value = [0, 7, 0, 0, 0]<br/>class = not_recom>, fillcolor="#7be539"] ;
363 -> 364 ;
365 [label=<children &le; 0.5<br/>entropy = 0.592<br/>samples = 7<br/>value = [0, 1, 0, 6, 0]<br/>class = very_recom>, fillcolor="#5d5ae9"] ;
363 -> 365 ;
366 [label=<form &le; 2.5<br/>entropy = 0.918<br/>samples = 3<br/>value = [0, 1, 0, 2, 0]<br/>class = very_recom>, fillcolor="#9e9cf2"] ;
365 -> 366 ;
367 [label=<entropy = 0.0<br/>samples = 2<br/>value = [0, 0, 0, 2, 0]<br/>class = very_recom>, fillcolor="#3c39e5"] ;
366 -> 367 ;
368 [label=<entropy = 0.0<br/>samples = 1<br/>value = [0, 1, 0, 0, 0]<br/>class = not_recom>, fillcolor="#7be539"] ;
366 -> 368 ;
369 [label=<entropy = 0.0<br/>samples = 4<br/>value = [0, 0, 0, 4, 0]<br/>class = very_recom>, fillcolor="#3c39e5"] ;
365 -> 369 ;
370 [label=<entropy = 0.0<br/>samples = 12<br/>value = [0, 0, 0, 12, 0]<br/>class = very_recom>, fillcolor="#3c39e5"] ;
362 -> 370 ;
371 [label=<children &le; 1.5<br/>entropy = 0.673<br/>samples = 113<br/>value = [0, 20, 0, 93, 0]<br/>class = very_recom>, fillcolor="#6664eb"] ;
359 -> 371 ;
372 [label=<housing &le; 1.5<br/>entropy = 0.94<br/>samples = 56<br/>value = [0, 20, 0, 36, 0]<br/>class = very_recom>, fillcolor="#a8a7f3"] ;
371 -> 372 ;
373 [label=<form &le; 0.5<br/>entropy = 0.48<br/>samples = 29<br/>value = [0, 3, 0, 26, 0]<br/>class = very_recom>, fillcolor="#5250e8"] ;
372 -> 373 ;
374 [label=<children &le; 0.5<br/>entropy = 0.985<br/>samples = 7<br/>value = [0, 3, 0, 4, 0]<br/>class = very_recom>, fillcolor="#cecef8"] ;
373 -> 374 ;
375 [label=<entropy = 0.0<br/>samples = 3<br/>value = [0, 3, 0, 0, 0]<br/>class = not_recom>, fillcolor="#7be539"] ;
374 -> 375 ;
376 [label=<entropy = 0.0<br/>samples = 4<br/>value = [0, 0, 0, 4, 0]<br/>class = very_recom>, fillcolor="#3c39e5"] ;
374 -> 376 ;
377 [label=<entropy = 0.0<br/>samples = 22<br/>value = [0, 0, 0, 22, 0]<br/>class = very_recom>, fillcolor="#3c39e5"] ;
373 -> 377 ;
378 [label=<form &le; 1.5<br/>entropy = 0.951<br/>samples = 27<br/>value = [0, 17, 0, 10, 0]<br/>class = not_recom>, fillcolor="#c9f4ad"] ;
372 -> 378 ;
379 [label=<entropy = 0.0<br/>samples = 14<br/>value = [0, 14, 0, 0, 0]<br/>class = not_recom>, fillcolor="#7be539"] ;
378 -> 379 ;
380 [label=<form &le; 2.5<br/>entropy = 0.779<br/>samples = 13<br/>value = [0, 3, 0, 10, 0]<br/>class = very_recom>, fillcolor="#7674ed"] ;
378 -> 380 ;
381 [label=<entropy = 0.0<br/>samples = 7<br/>value = [0, 0, 0, 7, 0]<br/>class = very_recom>, fillcolor="#3c39e5"] ;
380 -> 381 ;
382 [label=<children &le; 0.5<br/>entropy = 1.0<br/>samples = 6<br/>value = [0, 3, 0, 3, 0]<br/>class = not_recom>, fillcolor="#ffffff"] ;
380 -> 382 ;
383 [label=<entropy = 0.0<br/>samples = 3<br/>value = [0, 3, 0, 0, 0]<br/>class = not_recom>, fillcolor="#7be539"] ;
382 -> 383 ;
384 [label=<entropy = 0.0<br/>samples = 3<br/>value = [0, 0, 0, 3, 0]<br/>class = very_recom>, fillcolor="#3c39e5"] ;
382 -> 384 ;
385 [label=<entropy = 0.0<br/>samples = 57<br/>value = [0, 0, 0, 57, 0]<br/>class = very_recom>, fillcolor="#3c39e5"] ;
371 -> 385 ;
386 [label=<entropy = 0.0<br/>samples = 175<br/>value = [0, 175, 0, 0, 0]<br/>class = not_recom>, fillcolor="#7be539"] ;
356 -> 386 ;
387 [label=<health &le; 1.5<br/>entropy = 0.516<br/>samples = 2064<br/>value = [0, 1829, 1, 0, 234]<br/>class = not_recom>, fillcolor="#8ce852"] ;
325 -> 387 ;
388 [label=<entropy = 0.0<br/>samples = 1022<br/>value = [0, 1022, 0, 0, 0]<br/>class = not_recom>, fillcolor="#7be539"] ;
387 -> 388 ;
389 [label=<housing &le; 0.5<br/>entropy = 0.779<br/>samples = 1042<br/>value = [0, 807, 1, 0, 234]<br/>class = not_recom>, fillcolor="#a1ed73"] ;
387 -> 389 ;
390 [label=<finance &le; 0.5<br/>entropy = 1.009<br/>samples = 350<br/>value = [0, 201, 1, 0, 148]<br/>class = not_recom>, fillcolor="#dcf8cb"] ;
389 -> 390 ;
391 [label=<social &le; 0.5<br/>entropy = 0.972<br/>samples = 179<br/>value = [0, 61, 1, 0, 117]<br/>class = spec_prior>, fillcolor="#f3a1e1"] ;
390 -> 391 ;
392 [label=<entropy = 0.0<br/>samples = 59<br/>value = [0, 0, 0, 0, 59]<br/>class = spec_prior>, fillcolor="#e539c0"] ;
391 -> 392 ;
393 [label=<social &le; 1.5<br/>entropy = 1.061<br/>samples = 120<br/>value = [0, 61, 1, 0, 58]<br/>class = not_recom>, fillcolor="#f9fef5"] ;
391 -> 393 ;
394 [label=<entropy = 0.0<br/>samples = 61<br/>value = [0, 61, 0, 0, 0]<br/>class = not_recom>, fillcolor="#7be539"] ;
393 -> 394 ;
395 [label=<form &le; 0.5<br/>entropy = 0.124<br/>samples = 59<br/>value = [0, 0, 1, 0, 58]<br/>class = spec_prior>, fillcolor="#e53cc1"] ;
393 -> 395 ;
396 [label=<children &le; 0.5<br/>entropy = 0.337<br/>samples = 16<br/>value = [0, 0, 1, 0, 15]<br/>class = spec_prior>, fillcolor="#e746c4"] ;
395 -> 396 ;
397 [label=<has_nurs &le; 2.5<br/>entropy = 0.811<br/>samples = 4<br/>value = [0, 0, 1, 0, 3]<br/>class = spec_prior>, fillcolor="#ee7bd5"] ;
396 -> 397 ;
398 [label=<entropy = 0.0<br/>samples = 2<br/>value = [0, 0, 0, 0, 2]<br/>class = spec_prior>, fillcolor="#e539c0"] ;
397 -> 398 ;
399 [label=<parents &le; 1.5<br/>entropy = 1.0<br/>samples = 2<br/>value = [0, 0, 1, 0, 1]<br/>class = recommend>, fillcolor="#ffffff"] ;
397 -> 399 ;
400 [label=<entropy = 0.0<br/>samples = 1<br/>value = [0, 0, 0, 0, 1]<br/>class = spec_prior>, fillcolor="#e539c0"] ;
399 -> 400 ;
401 [label=<entropy = 0.0<br/>samples = 1<br/>value = [0, 0, 1, 0, 0]<br/>class = recommend>, fillcolor="#39e5c5"] ;
399 -> 401 ;
402 [label=<entropy = 0.0<br/>samples = 12<br/>value = [0, 0, 0, 0, 12]<br/>class = spec_prior>, fillcolor="#e539c0"] ;
396 -> 402 ;
403 [label=<entropy = 0.0<br/>samples = 43<br/>value = [0, 0, 0, 0, 43]<br/>class = spec_prior>, fillcolor="#e539c0"] ;
395 -> 403 ;
404 [label=<children &le; 1.5<br/>entropy = 0.683<br/>samples = 171<br/>value = [0, 140, 0, 0, 31]<br/>class = not_recom>, fillcolor="#98eb65"] ;
390 -> 404 ;
405 [label=<form &le; 1.5<br/>entropy = 0.953<br/>samples = 83<br/>value = [0, 52, 0, 0, 31]<br/>class = not_recom>, fillcolor="#caf4af"] ;
404 -> 405 ;
406 [label=<social &le; 0.5<br/>entropy = 0.954<br/>samples = 40<br/>value = [0, 15, 0, 0, 25]<br/>class = spec_prior>, fillcolor="#f5b0e6"] ;
405 -> 406 ;
407 [label=<entropy = 0.0<br/>samples = 13<br/>value = [0, 0, 0, 0, 13]<br/>class = spec_prior>, fillcolor="#e539c0"] ;
406 -> 407 ;
408 [label=<social &le; 1.5<br/>entropy = 0.991<br/>samples = 27<br/>value = [0, 15, 0, 0, 12]<br/>class = not_recom>, fillcolor="#e5fad7"] ;
406 -> 408 ;
409 [label=<entropy = 0.0<br/>samples = 15<br/>value = [0, 15, 0, 0, 0]<br/>class = not_recom>, fillcolor="#7be539"] ;
408 -> 409 ;
410 [label=<entropy = 0.0<br/>samples = 12<br/>value = [0, 0, 0, 0, 12]<br/>class = spec_prior>, fillcolor="#e539c0"] ;
408 -> 410 ;
411 [label=<children &le; 0.5<br/>entropy = 0.583<br/>samples = 43<br/>value = [0, 37, 0, 0, 6]<br/>class = not_recom>, fillcolor="#90e959"] ;
405 -> 411 ;
412 [label=<form &le; 2.5<br/>entropy = 0.881<br/>samples = 20<br/>value = [0, 14, 0, 0, 6]<br/>class = not_recom>, fillcolor="#b4f08e"] ;
411 -> 412 ;
413 [label=<entropy = 0.0<br/>samples = 11<br/>value = [0, 11, 0, 0, 0]<br/>class = not_recom>, fillcolor="#7be539"] ;
412 -> 413 ;
414 [label=<social &le; 0.5<br/>entropy = 0.918<br/>samples = 9<br/>value = [0, 3, 0, 0, 6]<br/>class = spec_prior>, fillcolor="#f29ce0"] ;
412 -> 414 ;
415 [label=<entropy = 0.0<br/>samples = 3<br/>value = [0, 0, 0, 0, 3]<br/>class = spec_prior>, fillcolor="#e539c0"] ;
414 -> 415 ;
416 [label=<social &le; 1.5<br/>entropy = 1.0<br/>samples = 6<br/>value = [0, 3, 0, 0, 3]<br/>class = not_recom>, fillcolor="#ffffff"] ;
414 -> 416 ;
417 [label=<entropy = 0.0<br/>samples = 3<br/>value = [0, 3, 0, 0, 0]<br/>class = not_recom>, fillcolor="#7be539"] ;
416 -> 417 ;
418 [label=<entropy = 0.0<br/>samples = 3<br/>value = [0, 0, 0, 0, 3]<br/>class = spec_prior>, fillcolor="#e539c0"] ;
416 -> 418 ;
419 [label=<entropy = 0.0<br/>samples = 23<br/>value = [0, 23, 0, 0, 0]<br/>class = not_recom>, fillcolor="#7be539"] ;
411 -> 419 ;
420 [label=<entropy = 0.0<br/>samples = 88<br/>value = [0, 88, 0, 0, 0]<br/>class = not_recom>, fillcolor="#7be539"] ;
404 -> 420 ;
421 [label=<children &le; 1.5<br/>entropy = 0.542<br/>samples = 692<br/>value = [0, 606, 0, 0, 86]<br/>class = not_recom>, fillcolor="#8ee955"] ;
389 -> 421 ;
422 [label=<form &le; 1.5<br/>entropy = 0.807<br/>samples = 348<br/>value = [0, 262, 0, 0, 86]<br/>class = not_recom>, fillcolor="#a6ee7a"] ;
421 -> 422 ;
423 [label=<housing &le; 1.5<br/>entropy = 0.983<br/>samples = 175<br/>value = [0, 101, 0, 0, 74]<br/>class = not_recom>, fillcolor="#dcf8ca"] ;
422 -> 423 ;
424 [label=<children &le; 0.5<br/>entropy = 0.68<br/>samples = 89<br/>value = [0, 73, 0, 0, 16]<br/>class = not_recom>, fillcolor="#98eb64"] ;
423 -> 424 ;
425 [label=<form &le; 0.5<br/>entropy = 0.946<br/>samples = 44<br/>value = [0, 28, 0, 0, 16]<br/>class = not_recom>, fillcolor="#c6f4aa"] ;
424 -> 425 ;
426 [label=<social &le; 0.5<br/>entropy = 0.918<br/>samples = 24<br/>value = [0, 8, 0, 0, 16]<br/>class = spec_prior>, fillcolor="#f29ce0"] ;
425 -> 426 ;
427 [label=<entropy = 0.0<br/>samples = 8<br/>value = [0, 0, 0, 0, 8]<br/>class = spec_prior>, fillcolor="#e539c0"] ;
426 -> 427 ;
428 [label=<social &le; 1.5<br/>entropy = 1.0<br/>samples = 16<br/>value = [0, 8, 0, 0, 8]<br/>class = not_recom>, fillcolor="#ffffff"] ;
426 -> 428 ;
429 [label=<entropy = 0.0<br/>samples = 8<br/>value = [0, 8, 0, 0, 0]<br/>class = not_recom>, fillcolor="#7be539"] ;
428 -> 429 ;
430 [label=<entropy = 0.0<br/>samples = 8<br/>value = [0, 0, 0, 0, 8]<br/>class = spec_prior>, fillcolor="#e539c0"] ;
428 -> 430 ;
431 [label=<entropy = 0.0<br/>samples = 20<br/>value = [0, 20, 0, 0, 0]<br/>class = not_recom>, fillcolor="#7be539"] ;
425 -> 431 ;
432 [label=<entropy = 0.0<br/>samples = 45<br/>value = [0, 45, 0, 0, 0]<br/>class = not_recom>, fillcolor="#7be539"] ;
424 -> 432 ;
433 [label=<social &le; 0.5<br/>entropy = 0.91<br/>samples = 86<br/>value = [0, 28, 0, 0, 58]<br/>class = spec_prior>, fillcolor="#f299de"] ;
423 -> 433 ;
434 [label=<entropy = 0.0<br/>samples = 30<br/>value = [0, 0, 0, 0, 30]<br/>class = spec_prior>, fillcolor="#e539c0"] ;
433 -> 434 ;
435 [label=<social &le; 1.5<br/>entropy = 1.0<br/>samples = 56<br/>value = [0, 28, 0, 0, 28]<br/>class = not_recom>, fillcolor="#ffffff"] ;
433 -> 435 ;
436 [label=<entropy = 0.0<br/>samples = 28<br/>value = [0, 28, 0, 0, 0]<br/>class = not_recom>, fillcolor="#7be539"] ;
435 -> 436 ;
437 [label=<entropy = 0.0<br/>samples = 28<br/>value = [0, 0, 0, 0, 28]<br/>class = spec_prior>, fillcolor="#e539c0"] ;
435 -> 437 ;
438 [label=<children &le; 0.5<br/>entropy = 0.364<br/>samples = 173<br/>value = [0, 161, 0, 0, 12]<br/>class = not_recom>, fillcolor="#85e748"] ;
422 -> 438 ;
439 [label=<form &le; 2.5<br/>entropy = 0.601<br/>samples = 82<br/>value = [0, 70, 0, 0, 12]<br/>class = not_recom>, fillcolor="#92e95b"] ;
438 -> 439 ;
440 [label=<entropy = 0.0<br/>samples = 43<br/>value = [0, 43, 0, 0, 0]<br/>class = not_recom>, fillcolor="#7be539"] ;
439 -> 440 ;
441 [label=<housing &le; 1.5<br/>entropy = 0.89<br/>samples = 39<br/>value = [0, 27, 0, 0, 12]<br/>class = not_recom>, fillcolor="#b6f191"] ;
439 -> 441 ;
442 [label=<entropy = 0.0<br/>samples = 20<br/>value = [0, 20, 0, 0, 0]<br/>class = not_recom>, fillcolor="#7be539"] ;
441 -> 442 ;
443 [label=<social &le; 1.5<br/>entropy = 0.949<br/>samples = 19<br/>value = [0, 7, 0, 0, 12]<br/>class = spec_prior>, fillcolor="#f4ace5"] ;
441 -> 443 ;
444 [label=<social &le; 0.5<br/>entropy = 0.98<br/>samples = 12<br/>value = [0, 7, 0, 0, 5]<br/>class = not_recom>, fillcolor="#d9f8c6"] ;
443 -> 444 ;
445 [label=<entropy = 0.0<br/>samples = 5<br/>value = [0, 0, 0, 0, 5]<br/>class = spec_prior>, fillcolor="#e539c0"] ;
444 -> 445 ;
446 [label=<entropy = 0.0<br/>samples = 7<br/>value = [0, 7, 0, 0, 0]<br/>class = not_recom>, fillcolor="#7be539"] ;
444 -> 446 ;
447 [label=<entropy = 0.0<br/>samples = 7<br/>value = [0, 0, 0, 0, 7]<br/>class = spec_prior>, fillcolor="#e539c0"] ;
443 -> 447 ;
448 [label=<entropy = 0.0<br/>samples = 91<br/>value = [0, 91, 0, 0, 0]<br/>class = not_recom>, fillcolor="#7be539"] ;
438 -> 448 ;
449 [label=<entropy = 0.0<br/>samples = 344<br/>value = [0, 344, 0, 0, 0]<br/>class = not_recom>, fillcolor="#7be539"] ;
421 -> 449 ;
450 [label=<health &le; 1.5<br/>entropy = 0.533<br/>samples = 1583<br/>value = [0, 192, 0, 1391, 0]<br/>class = very_recom>, fillcolor="#5754e9"] ;
2 -> 450 ;
451 [label=<form &le; 0.5<br/>entropy = 0.073<br/>samples = 791<br/>value = [0, 7, 0, 784, 0]<br/>class = very_recom>, fillcolor="#3e3be5"] ;
450 -> 451 ;
452 [label=<children &le; 0.5<br/>entropy = 0.223<br/>samples = 195<br/>value = [0, 7, 0, 188, 0]<br/>class = very_recom>, fillcolor="#4340e6"] ;
451 -> 452 ;
453 [label=<housing &le; 0.5<br/>entropy = 0.584<br/>samples = 50<br/>value = [0, 7, 0, 43, 0]<br/>class = very_recom>, fillcolor="#5c59e9"] ;
452 -> 453 ;
454 [label=<finance &le; 0.5<br/>entropy = 0.997<br/>samples = 15<br/>value = [0, 7, 0, 8, 0]<br/>class = very_recom>, fillcolor="#e7e6fc"] ;
453 -> 454 ;
455 [label=<entropy = 0.0<br/>samples = 7<br/>value = [0, 7, 0, 0, 0]<br/>class = not_recom>, fillcolor="#7be539"] ;
454 -> 455 ;
456 [label=<entropy = 0.0<br/>samples = 8<br/>value = [0, 0, 0, 8, 0]<br/>class = very_recom>, fillcolor="#3c39e5"] ;
454 -> 456 ;
457 [label=<entropy = 0.0<br/>samples = 35<br/>value = [0, 0, 0, 35, 0]<br/>class = very_recom>, fillcolor="#3c39e5"] ;
453 -> 457 ;
458 [label=<entropy = 0.0<br/>samples = 145<br/>value = [0, 0, 0, 145, 0]<br/>class = very_recom>, fillcolor="#3c39e5"] ;
452 -> 458 ;
459 [label=<entropy = 0.0<br/>samples = 596<br/>value = [0, 0, 0, 596, 0]<br/>class = very_recom>, fillcolor="#3c39e5"] ;
451 -> 459 ;
460 [label=<housing &le; 0.5<br/>entropy = 0.784<br/>samples = 792<br/>value = [0, 185, 0, 607, 0]<br/>class = very_recom>, fillcolor="#7775ed"] ;
450 -> 460 ;
461 [label=<finance &le; 0.5<br/>entropy = 0.989<br/>samples = 265<br/>value = [0, 116, 0, 149, 0]<br/>class = very_recom>, fillcolor="#d4d3f9"] ;
460 -> 461 ;
462 [label=<social &le; 0.5<br/>entropy = 0.905<br/>samples = 128<br/>value = [0, 87, 0, 41, 0]<br/>class = not_recom>, fillcolor="#b9f196"] ;
461 -> 462 ;
463 [label=<entropy = 0.0<br/>samples = 42<br/>value = [0, 42, 0, 0, 0]<br/>class = not_recom>, fillcolor="#7be539"] ;
462 -> 463 ;
464 [label=<social &le; 1.5<br/>entropy = 0.998<br/>samples = 86<br/>value = [0, 45, 0, 41, 0]<br/>class = not_recom>, fillcolor="#f3fded"] ;
462 -> 464 ;
465 [label=<form &le; 0.5<br/>entropy = 0.359<br/>samples = 44<br/>value = [0, 3, 0, 41, 0]<br/>class = very_recom>, fillcolor="#4a47e7"] ;
464 -> 465 ;
466 [label=<children &le; 0.5<br/>entropy = 0.845<br/>samples = 11<br/>value = [0, 3, 0, 8, 0]<br/>class = very_recom>, fillcolor="#8583ef"] ;
465 -> 466 ;
467 [label=<entropy = 0.0<br/>samples = 3<br/>value = [0, 3, 0, 0, 0]<br/>class = not_recom>, fillcolor="#7be539"] ;
466 -> 467 ;
468 [label=<entropy = 0.0<br/>samples = 8<br/>value = [0, 0, 0, 8, 0]<br/>class = very_recom>, fillcolor="#3c39e5"] ;
466 -> 468 ;
469 [label=<entropy = 0.0<br/>samples = 33<br/>value = [0, 0, 0, 33, 0]<br/>class = very_recom>, fillcolor="#3c39e5"] ;
465 -> 469 ;
470 [label=<entropy = 0.0<br/>samples = 42<br/>value = [0, 42, 0, 0, 0]<br/>class = not_recom>, fillcolor="#7be539"] ;
464 -> 470 ;
471 [label=<children &le; 1.5<br/>entropy = 0.745<br/>samples = 137<br/>value = [0, 29, 0, 108, 0]<br/>class = very_recom>, fillcolor="#706eec"] ;
461 -> 471 ;
472 [label=<form &le; 1.5<br/>entropy = 0.982<br/>samples = 69<br/>value = [0, 29, 0, 40, 0]<br/>class = very_recom>, fillcolor="#c9c9f8"] ;
471 -> 472 ;
473 [label=<social &le; 0.5<br/>entropy = 0.928<br/>samples = 35<br/>value = [0, 23, 0, 12, 0]<br/>class = not_recom>, fillcolor="#c0f3a0"] ;
472 -> 473 ;
474 [label=<entropy = 0.0<br/>samples = 12<br/>value = [0, 12, 0, 0, 0]<br/>class = not_recom>, fillcolor="#7be539"] ;
473 -> 474 ;
475 [label=<social &le; 1.5<br/>entropy = 0.999<br/>samples = 23<br/>value = [0, 11, 0, 12, 0]<br/>class = very_recom>, fillcolor="#efeffd"] ;
473 -> 475 ;
476 [label=<entropy = 0.0<br/>samples = 12<br/>value = [0, 0, 0, 12, 0]<br/>class = very_recom>, fillcolor="#3c39e5"] ;
475 -> 476 ;
477 [label=<entropy = 0.0<br/>samples = 11<br/>value = [0, 11, 0, 0, 0]<br/>class = not_recom>, fillcolor="#7be539"] ;
475 -> 477 ;
478 [label=<children &le; 0.5<br/>entropy = 0.672<br/>samples = 34<br/>value = [0, 6, 0, 28, 0]<br/>class = very_recom>, fillcolor="#6663eb"] ;
472 -> 478 ;
479 [label=<form &le; 2.5<br/>entropy = 0.954<br/>samples = 16<br/>value = [0, 6, 0, 10, 0]<br/>class = very_recom>, fillcolor="#b1b0f5"] ;
478 -> 479 ;
480 [label=<entropy = 0.0<br/>samples = 8<br/>value = [0, 0, 0, 8, 0]<br/>class = very_recom>, fillcolor="#3c39e5"] ;
479 -> 480 ;
481 [label=<social &le; 0.5<br/>entropy = 0.811<br/>samples = 8<br/>value = [0, 6, 0, 2, 0]<br/>class = not_recom>, fillcolor="#a7ee7b"] ;
479 -> 481 ;
482 [label=<entropy = 0.0<br/>samples = 3<br/>value = [0, 3, 0, 0, 0]<br/>class = not_recom>, fillcolor="#7be539"] ;
481 -> 482 ;
483 [label=<social &le; 1.5<br/>entropy = 0.971<br/>samples = 5<br/>value = [0, 3, 0, 2, 0]<br/>class = not_recom>, fillcolor="#d3f6bd"] ;
481 -> 483 ;
484 [label=<entropy = 0.0<br/>samples = 2<br/>value = [0, 0, 0, 2, 0]<br/>class = very_recom>, fillcolor="#3c39e5"] ;
483 -> 484 ;
485 [label=<entropy = 0.0<br/>samples = 3<br/>value = [0, 3, 0, 0, 0]<br/>class = not_recom>, fillcolor="#7be539"] ;
483 -> 485 ;
486 [label=<entropy = 0.0<br/>samples = 18<br/>value = [0, 0, 0, 18, 0]<br/>class = very_recom>, fillcolor="#3c39e5"] ;
478 -> 486 ;
487 [label=<entropy = 0.0<br/>samples = 68<br/>value = [0, 0, 0, 68, 0]<br/>class = very_recom>, fillcolor="#3c39e5"] ;
471 -> 487 ;
488 [label=<children &le; 1.5<br/>entropy = 0.56<br/>samples = 527<br/>value = [0, 69, 0, 458, 0]<br/>class = very_recom>, fillcolor="#5957e9"] ;
460 -> 488 ;
489 [label=<form &le; 1.5<br/>entropy = 0.826<br/>samples = 266<br/>value = [0, 69, 0, 197, 0]<br/>class = very_recom>, fillcolor="#807eee"] ;
488 -> 489 ;
490 [label=<housing &le; 1.5<br/>entropy = 0.984<br/>samples = 136<br/>value = [0, 58, 0, 78, 0]<br/>class = very_recom>, fillcolor="#cdccf8"] ;
489 -> 490 ;
491 [label=<children &le; 0.5<br/>entropy = 0.672<br/>samples = 68<br/>value = [0, 12, 0, 56, 0]<br/>class = very_recom>, fillcolor="#6663eb"] ;
490 -> 491 ;
492 [label=<form &le; 0.5<br/>entropy = 0.946<br/>samples = 33<br/>value = [0, 12, 0, 21, 0]<br/>class = very_recom>, fillcolor="#abaaf4"] ;
491 -> 492 ;
493 [label=<social &le; 0.5<br/>entropy = 0.722<br/>samples = 15<br/>value = [0, 12, 0, 3, 0]<br/>class = not_recom>, fillcolor="#9cec6a"] ;
492 -> 493 ;
494 [label=<entropy = 0.0<br/>samples = 6<br/>value = [0, 6, 0, 0, 0]<br/>class = not_recom>, fillcolor="#7be539"] ;
493 -> 494 ;
495 [label=<social &le; 1.5<br/>entropy = 0.918<br/>samples = 9<br/>value = [0, 6, 0, 3, 0]<br/>class = not_recom>, fillcolor="#bdf29c"] ;
493 -> 495 ;
496 [label=<entropy = 0.0<br/>samples = 3<br/>value = [0, 0, 0, 3, 0]<br/>class = very_recom>, fillcolor="#3c39e5"] ;
495 -> 496 ;
497 [label=<entropy = 0.0<br/>samples = 6<br/>value = [0, 6, 0, 0, 0]<br/>class = not_recom>, fillcolor="#7be539"] ;
495 -> 497 ;
498 [label=<entropy = 0.0<br/>samples = 18<br/>value = [0, 0, 0, 18, 0]<br/>class = very_recom>, fillcolor="#3c39e5"] ;
492 -> 498 ;
499 [label=<entropy = 0.0<br/>samples = 35<br/>value = [0, 0, 0, 35, 0]<br/>class = very_recom>, fillcolor="#3c39e5"] ;
491 -> 499 ;
500 [label=<social &le; 0.5<br/>entropy = 0.908<br/>samples = 68<br/>value = [0, 46, 0, 22, 0]<br/>class = not_recom>, fillcolor="#baf198"] ;
490 -> 500 ;
501 [label=<entropy = 0.0<br/>samples = 23<br/>value = [0, 23, 0, 0, 0]<br/>class = not_recom>, fillcolor="#7be539"] ;
500 -> 501 ;
502 [label=<social &le; 1.5<br/>entropy = 1.0<br/>samples = 45<br/>value = [0, 23, 0, 22, 0]<br/>class = not_recom>, fillcolor="#f9fef6"] ;
500 -> 502 ;
503 [label=<entropy = 0.0<br/>samples = 22<br/>value = [0, 0, 0, 22, 0]<br/>class = very_recom>, fillcolor="#3c39e5"] ;
502 -> 503 ;
504 [label=<entropy = 0.0<br/>samples = 23<br/>value = [0, 23, 0, 0, 0]<br/>class = not_recom>, fillcolor="#7be539"] ;
502 -> 504 ;
505 [label=<form &le; 2.5<br/>entropy = 0.418<br/>samples = 130<br/>value = [0, 11, 0, 119, 0]<br/>class = very_recom>, fillcolor="#4e4be7"] ;
489 -> 505 ;
506 [label=<entropy = 0.0<br/>samples = 67<br/>value = [0, 0, 0, 67, 0]<br/>class = very_recom>, fillcolor="#3c39e5"] ;
505 -> 506 ;
507 [label=<children &le; 0.5<br/>entropy = 0.668<br/>samples = 63<br/>value = [0, 11, 0, 52, 0]<br/>class = very_recom>, fillcolor="#6563ea"] ;
505 -> 507 ;
508 [label=<housing &le; 1.5<br/>entropy = 0.948<br/>samples = 30<br/>value = [0, 11, 0, 19, 0]<br/>class = very_recom>, fillcolor="#adacf4"] ;
507 -> 508 ;
509 [label=<entropy = 0.0<br/>samples = 14<br/>value = [0, 0, 0, 14, 0]<br/>class = very_recom>, fillcolor="#3c39e5"] ;
508 -> 509 ;
510 [label=<social &le; 0.5<br/>entropy = 0.896<br/>samples = 16<br/>value = [0, 11, 0, 5, 0]<br/>class = not_recom>, fillcolor="#b7f193"] ;
508 -> 510 ;
511 [label=<entropy = 0.0<br/>samples = 6<br/>value = [0, 6, 0, 0, 0]<br/>class = not_recom>, fillcolor="#7be539"] ;
510 -> 511 ;
512 [label=<social &le; 1.5<br/>entropy = 1.0<br/>samples = 10<br/>value = [0, 5, 0, 5, 0]<br/>class = not_recom>, fillcolor="#ffffff"] ;
510 -> 512 ;
513 [label=<entropy = 0.0<br/>samples = 5<br/>value = [0, 0, 0, 5, 0]<br/>class = very_recom>, fillcolor="#3c39e5"] ;
512 -> 513 ;
514 [label=<entropy = 0.0<br/>samples = 5<br/>value = [0, 5, 0, 0, 0]<br/>class = not_recom>, fillcolor="#7be539"] ;
512 -> 514 ;
515 [label=<entropy = 0.0<br/>samples = 33<br/>value = [0, 0, 0, 33, 0]<br/>class = very_recom>, fillcolor="#3c39e5"] ;
507 -> 515 ;
516 [label=<entropy = 0.0<br/>samples = 261<br/>value = [0, 0, 0, 261, 0]<br/>class = very_recom>, fillcolor="#3c39e5"] ;
488 -> 516 ;
}
